-0.05441626992430937
0.6131653094021425
0.9779389597008685
0.5113823284838408
0.9796563994481873
0.06857054386428585
-0.7187849670975384
0.6595588916244517
-0.6302402384807793
-0.3785501227686767
0.619116946941801
0.9970468274983748
-0.7908539377191404
0.19301831529752134
0.9978533962583822
0.5982193161006948
0.2203220567617068
-0.29096077906404494
-0.7424686197013286
-0.6250721609299834
-0.5235290073539636
0.09762381102665163
-0.6200743912383917
-0.5235008000082146
-0.34446492818781005
0.9069508565726077
-0.28371858939798233
-0.35726022907714183
-0.520199726800278
0.16252435073670946
-0.5441344790229965
0.9563287095987962
-0.9889445888290402
-0.3507371767416321
-0.6398423943582401
0.18918321021815965
-0.44376183942915937
-0.8447320937617899
0.15763253043578418
0.7703829756109006
0.4558686734507331
-0.23814124495144418
-0.1715081466205466
0.6145793843568849
-0.490694547456922
-0.06097532094349223
0.975745146993023
-0.051534654849777706
0.35498074530268253
0.8119261748873599
-0.17383405274138397
0.5490046218890754
0.3984535010343837
0.2646724774012559
0.29934017796952084
0.5729720135247001
0.3802807029964721
0.5610648972612116
-0.012864819583322973
0.42947055347831986
0.5534277096896063
0.13717696222522413
-0.20709891417811566
0.20938955084408084
-0.04292594902804181
-0.7589368833306755
0.77123273064245
0.38215191338807664
0.35886126363165505
0.2741500717143128
0.21978201230699268
-0.45477021207442103
-0.4963294029442409
0.06011831947998347
-0.655621308959665
0.7534770642146534
-0.7308275866243354
-0.6421137007403446
0.4128636674858317
0.055658130004334616
0.5649266201394805
0.7053507762921849
-0.8205676032784783
-0.4776455029944149
-0.45952900266526164
0.19663030922227742
-0.3062456801650497
0.21370467053594355
0.15750034874788765
-0.7865607550932956
0.39660173443049374
0.675181031220323
-0.9517914331370871
0.642457964348496
-0.20029742802058204
0.16999367031790813
0.539600899963725
-0.6959637494528779
-0.19038641047486538
-0.578889738138689
-0.5897337433265193
-0.36510412382929447
-0.5957407146009901
-0.6202639766215463
0.8132438466333589
-0.42056642224676244
-0.24381953201221807
0.3390458836426373
0.8352926087314532
-0.8152352961133849
0.09548865394035966
-0.4737356074536754
0.5490143384163968
-0.5761619328016754
-0.05190526567056386
0.9662307991754422
0.23733690063487245
0.42081280059025783
0.6424713074241821
-0.20750474690792142
-0.028974343997875796
0.06238546853589577
-0.03137695761318593
0.30430587656486185
0.6070177710863223
0.9568096559713144
-0.8538832315477896
-0.4583466820191644
-0.03789301518769639
0.6358446917218425
0.7283641020706635
0.26846615785797834
0.6629828621905953
-0.16672370195213304
0.43083263311397024
-0.21207816028715332
-0.49356995226930245
-0.7186355590384004
0.5833689407248257
0.5357966816395447
-0.709588725981626
-0.42873962907581387
-0.11622569228144375
-0.03833716819889421
-0.7435674268251953
-0.2110776312245939
-0.4048421308120824
-0.4967891194522629
-0.5555397355840541
-0.575754731221207
0.630137411884466