-0.6741868878878416, -0.5613678830399613, 0.9082703346616308, -0.40701352850842687, 0.6362193662615403, -0.32444624887422124, -0.17607404442587438, 0.3825563341139393, -0.19096213759943748, 0.9981508634303617, -0.15061927870134406, 0.8432401349597698, -0.4194486615304944, 0.3309595696499872, 0.20507299357551778, 0.7508649383652442, 0.172770243366978, -0.3831912940852482, 0.402585368055115, -0.17205510609308172, -0.4136899547241346, 0.9158119781038576, 0.23761704598663735, -0.6335241145135782, 0.45578170831783726, 0.5844498560206022, 0.08629679267942159, -0.9374572543683386, 0.9724663490893035, 0.8572957755641872, -0.5469038111728217, 0.7501318941391464, -0.7694259244298758, -0.1722770738795698, 0.8595255859744055, 0.6252876147594213, 0.9494244526545277, -0.7936985009297968, 0.7572608022136094, -0.9874007747516926, 0.47922190665261066, -0.21350172872060558, 0.8165224059466643, 0.09574341812236709, -0.23829459609535553, 0.6688910058021089, 0.4054880207658327, 0.6382693571933373, -0.3587715176174684, 0.8186338948206369, 0.23111013258451374, 0.6980041675486075, -0.18481250425604268, -0.6014660578100206, 0.9520751559413969, -0.44149814766512874, 0.6949242114296483, 0.5694886068047897, 0.9300901657970764, 0.7471973600769304, -0.46866859805722516, 0.5032821556569957, -0.2904076886095508, -0.7952535960772322, -0.9334702828178143, 0.3276912525795237, 0.11102394691116091, 0.4465819885310198, -0.1066102336442003, 0.5806095610680311, 0.20686915744271017, 0.2743961691907595, 0.21088067033233626, -0.6765534723821771, 0.670775031915531
-0.732231170888451, -0.7860982595136448, -0.27750244236883903, -0.354906777350541, -0.9080536317332029, 0.9064709370199724, 0.545806223640724, 0.4540175309189305, -0.12701319111530252, -0.5390260381303147, -0.3132858245177821, 0.5217169952842493, -0.17606115681965662, 0.13299613698878066, 0.5461602784644115, -0.46423815145177505, -0.3362474836799927, 0.23029125957749397, 0.652961516853372, -0.40424728143411803, -0.13077117447684605, 0.5274798576980362, -0.07436278952252806, -0.10491877102530944, -0.13798536849483156, 0.8656122554387586, 0.7744036647708228, 0.22428573798485463, -0.030593153324104172, -0.9196577268586918, 0.9180814063826683, 0.2409366081571389, -0.07895800593470259, 0.4045661324455776, -0.7087533740138321, -0.07990434459233642, -0.7188791153246723, -0.3146860585329678, 0.027849666611291735, 0.00023468228425027604, 0.9153704557028455, 0.9746970030812316, 0.11384213667180942, 0.6522256444901346, -0.36585830452576484, 0.478469907689687, 0.7013996148673152, 0.5688130075253781, -0.5912229666885511, 0.8407845711434656, -0.836308766856289, -0.0920067920073806, 0.22897432095296066, 0.14535238887213975, 0.49910704811675943, 0.9577955825999482, 0.6391519500909819, 0.2790740811545622, -0.8111242257504334, -0.544741509656617, -0.9969753901971123, 0.23834959105018205, 0.9089082281223644, -0.7795139635638844, 0.20143400286580837, 0.9570382828243873, 0.04334042106598135, -0.30889269013236964, -0.13851077505682907, -0.4172621996683743, -0.23309128827390557, 0.3756638994996564, -0.27916298947872686, 0.6807523327413545, 0.6781557478645412
-0.9454827242688282, 0.0665481916636863, -0.008114352325403473, 0.06750142464131459, -0.5241458912012789, -0.48102284395044625, -0.20497939430747047, 0.36539090557143084, -0.9119344351210681, -0.6527727749736236, 0.7044332000605915, -0.35185083311133214, -0.7233684848006647, -0.7010468618463443, -0.6674632581557032, 0.7797660670323876, -0.42560684601590903, 0.16739612739004261, 0.17719514134912684, -0.8740510755580853, -0.27943900736010585, 0.3092593957613623, -0.300452558192307, -0.020392295450669007, 0.30270970085324445, -0.37746987822349487, 0.38515289906678163, -0.26187595669387775, -0.6948173566264599, -0.30638500895753173, 0.3714899572828121, 0.781273382963779, 0.893261605737266, 0.22381366319051654, -0.7994245371090214, -0.9025260122003202, 0.49268094708648746, -0.38183474886142044, 0.6337237667085969, -0.04442599003361147, 0.5728109796633722, 0.7195441992358895, 0.5183896879765366, 0.339546372382296, 0.6776179667242173, -0.7113734844755522, -0.7081139468886408, -0.3400859033385557, 0.8804789796382195, -0.8666151260511783, -0.6550710671304909, 0.968166536508305, 0.7977145182145713, -0.9298209947999538, -0.3738694798471691, -0.48158285531836365, 0.06608357470783677, 0.2614210651673954, 0.6410307838161304, 0.04712819070492813, 0.936863813483988, -0.9543110241849244, 0.029733525575271536, 0.0922520289669424, -0.6374058365695907, -0.8490045750947122, -0.28863730447714264, -0.6666249307379055, 0.9491010986893649, 0.06583126982668386, -0.3765863786786463, 0.6593723481314435, -0.6323066458770255, 0.0036858274196451823, 0.554593422991855
0.9479855893426952, 0.9851743594675177, 0.8210279777225185, -0.7251097670420914, 0.33002671601886924, -0.5819996031331209, 0.5985780536471279, 0.2604287492976569, -0.37690350223385005, -0.6053445673879301, 0.5055157523063678, 0.4887531518457342, 0.585746695063047, -0.530095748300917, 0.997760781475201, -0.9070570986127837, 0.7789273484402699, -0.34242540924795417, 0.7956503204150942, 0.5414544238683723, 0.669011344418434, -0.6160638017733646, 0.018264627844347903, -0.5313688436911264, 0.9230616833551095, -0.27906404285297315, -0.12118891429430567, -0.9715759310922638, -0.24427555185624605, -0.836309321300817, -0.5019003741461536, 0.058937924024602406, -0.13605741516570857, -0.7525670614942053, 0.9790510055026083, -0.14503394105991196, -0.7060373522150853, 0.8731669551229588, -0.28006301236021613, -0.12972858873993376, 0.16126195332541293, 0.13868198730460612, 0.4693815051027239, -0.5877763991327738, 0.28902868569161155, -0.3287435119612807, -0.5509255449928383, -0.5702060800260127, -0.8611905279222447, -0.18369118987488608, 0.0822048068434853, 0.6475468129929176, -0.32215236253651947, -0.5094173597961311, -0.14496731248304107, -0.01833363052797843, -0.014069215494672438, 0.20803036653331297, 0.4477005879033018, 0.3785778466692795, 0.6111280387341456, 0.5165228213339894, -0.18854274230477586, 0.954264014863837, -0.40085606157494125, 0.09248262389084827, 0.5720367565450646, 0.03194946699731327, 0.9244555788855324, 0.9887014746767728, 0.2300228082173854, -0.6625074662210371, 0.4831991303752332, 0.0024042340412497865, -0.287293338513932
0.321179496514413, -0.9258723302303498, 0.4756179121330759, 0.5793117282254316, -0.8414176976813037, 0.17873007854452672, 0.02637195754739885, 0.38735190413804643, -0.07855909408942008, 0.42832719042222367, 0.7487006457218954, 0.7677177295650988, -0.4190133886435605, 0.6496735766468626, -0.5346418294145137, 0.8022112977594698, -0.7820685442010751, -0.627652925546065, 0.87002178567118, 0.5373738813230053, 0.6393245300940196, 0.5451280631642001, -0.1685160412535862, 0.6249879303763395, -0.07341007604680705, -0.9476929308574613, 0.40089673128087044, 0.2808227744651508, -0.5733275057294578, -0.5019923049775126, -0.42249101327492156, 0.6252750515573045, -0.07229735016729233, -0.706902143357655, 0.7417458424292862, -0.8315301100750179, 0.4842399271223541, 0.380085491389893, 0.7518656080358355, -0.7692271945330305, 0.2541345033817368, 0.26431539362153966, 0.9485199379103895, 0.00039240037210808154, -0.7194332233179583, 0.8259659506014487, -0.6355006946566708, -0.4025794161478049, -0.6987034638314475, -0.5754999250690909, -0.6549968151957994, -0.2699074083476849, 0.07951855237180494, 0.9645002299614682, -0.7531191271231439, -0.9729318845931911, -0.9855155672791605, -0.9794301986171572, -0.13264407544492451, 0.5757671930660897, -0.6498592995121171, 0.2305134468581409, 0.7431756094452977, -0.09249515223141991, 0.2260757013906307, -0.8180394176629635, -0.16146591218728856, -0.2919385072361482, -0.256931916897575, -0.32948867936541193, 0.6456215013030078, 0.859513142568805, 0.8129932477278405, 0.4163779498756406, 0.299355979115997
0.8938781930483648, 0.6824179919294844, -0.10189024379836908, 0.350979813609249, -0.8473415844362933, -0.6991361138487231, -0.33359613989760994, -0.6698772073168202, -0.6491210273021926, 0.4251778010046756, -0.016574405697420413, -0.49955307365560664, -0.16113797696907906, -0.2501512871442788, 0.179154308782973, 0.49806462864759604, 0.028486172244473806, 0.22988024450505273, -0.9991476248752433, 0.7117825210321951, 0.41161666781377226, 0.5661851538338412, -0.5292975298039084, -0.7492669035008777, -0.9008667314498231, 0.7334248882567667, 0.27363978544036227, -0.6880308752557638, 0.9907010739232596, -0.5249626879241145, -0.007960143520800766, 0.7019113562317685, -0.5374206042959484, -0.27214509269154474, 0.670682120861986, 0.35385659870314745, 0.5195495431084995, 0.6997703820000183, 0.6733128551772185, -0.5178939830195834, 0.4836273998855427, 0.6036229851374957, 0.017203080087848655, -0.24550028155720272, -0.17472731041834955, 0.446610376338763, 0.048407396979437856, -0.03464215571706708, -0.33163174224489866, 0.5893473377887379, 0.41517714762593316, 0.3023588293897763, 0.6719169072689728, -0.6222617021579024, 0.27914888215196676, -0.28590851228528535, 0.7791152255597256, -0.5162440489848596, -0.8529179575770982, -0.5682685147228423, 0.9975804929919554, 0.8339474520649262, -0.8657889327600508, -0.5084007331175537, 0.13298982267117854, 0.39807107775003336, 0.09776513228169081, 0.039366181450575244, 0.4226409788952834, 0.3322686195286422, 0.6662342044072846, -0.046397680593294854, -0.7146753704918933, -0.2118501556881931, 0.23666474053146613
0.03571760489657727, -0.917126163596746, 0.9094408698190528, -0.4599729218281414, -0.4290404390685745, -0.20392932562739574, 0.5766393889200647, 0.20671420392772166, 0.8985652036455334, -0.3235058189353053, 0.3018305331398192, 0.4444885932035567, -0.9044592208310331, 0.4797079653686578, 0.4176194706575802, -0.5362078665709427, -0.07253742905475491, -0.9288787199757857, -0.8648761670116807, -0.5725566904028749, 0.4503737970662809, 0.17748692039476932, -0.9317338097067576, -0.053350710191513606, 0.3849152930338393, -0.6860137280309919, -0.2651157906340207, -0.2216670312907727, 0.08365505097728532, -0.28317768607669036, -0.19134003765197205, -0.6796049873798311, -0.3989760853041555, 0.5687126341774666, -0.8884569309793675, -0.22278317253522673, -0.37261837958475574, -0.45433343301689444, 0.07920780750688206, -0.29482541445641, -0.7263300536154729, -0.9168444984811899, -0.45558824013245625, 0.4978852129462763, 0.7565014611483911, 0.031033482953516156, 0.4368195131116801, 0.1533025871545628, 0.4541725202747351, -0.11340395288848715, -0.5718855880340961, -0.3418605145625304, -0.7941733667060156, 0.7761856738917277, 0.07422195422597522, 0.205504403070635, -0.06421437483291426, 0.08785901098106619, -0.46691877323116904, -0.36050734031429865, -0.1789943008321826, -0.8375619643766434, 0.08591657313495338, -0.3981399953030702, 0.8169157946476613, -0.9419916542626896, -0.9737539471822854, -0.9818754136750196, 0.11479677235283647, 0.7313338084945809, 0.010522561573761191, 0.08302231728434473, -0.9360928499711774, -0.19748070443587373, 0.5583147200523482
0.8728757635257809, -0.08138695605988522, 0.37123756638725425, -0.6334960563385992, 0.7118471511080533, -0.6993389543781321, -0.2910204754501695, 0.6263257683334551, 0.4396486755669433, 0.06157563584783032, 0.3244005647801398, -0.7161641025998624, 0.7141249987525589, -0.6655981932377029, 0.9780354617028557, -0.05066950759585387, 0.31551579834736776, 0.6904115767628665, 0.5833265135004675, 0.38593641256485123, -0.19016716220159324, -0.9102256617513018, -0.4953453128197838, -0.9948715462338873, 0.4998965261481936, -0.540312881101956, -0.2664761908244224, 0.6573080300059404, 0.5039482799168775, -0.7958574159907594, -0.7547600811656094, -0.32794634694975056, 0.5819538860689097, -0.027582198378519163, 0.27514459676950676, 0.11468227383137375, 0.8611070547588024, 0.8840564654596283, -0.2493661651213599, 0.6651099362574913, 0.8464780686759981, -0.025417739742946033, 0.8780165617532782, -0.3271100865794714, -0.8588150252414386, 0.9393789135453363, -0.9621360460622999, -0.17480144903927952, -0.34697598318282763, -0.4136656660291931, -0.08483783448477755, 0.7625342924311691, -0.5851393624730465, 0.6272122904503341, -0.3686590887448813, 0.4977620236507403, -0.5683343780918451, -0.1649222652561595, -0.07928868338440642, -0.648837756566075, -0.25003957111896646, 0.7174381398123821, 0.8392261110719748, -0.5202102532235537, -0.10645898769910644, 0.7373298568080875, -0.463199637325153, 0.18707157405412378, -0.9686797044485349, 0.6300376088725099, -0.5230357854957703, -0.37920483679598105, 0.7916079975268326, 0.38743617729973945, 0.585125355172329
0.19490000931783769, -0.37811109651647845, -0.6058023226321501, 0.2496397216857642, -0.47050978403735844, -0.272088169010245, -0.5465743198157051, -0.6753050548349466, -0.36091440702228406, 0.9616643221451278, 0.409812240565556, 0.4217143008498754, 0.39589231008210746, -0.9223832946973824, 0.7534066095694869, -0.8279674057643311, 0.011362186744499958, -0.009121200403806373, 0.9222297758481499, 0.5091043207382455, -0.7640511607078588, -0.5909774496560574, 0.48370065493772874, 0.15607597891798575, 0.9108190187472971, 0.36145801206125716, -0.06029411908248328, 0.008621535347179687, -0.9775373975763335, -0.2012331729958503, 0.1265001193856623, -0.13004837060654229, -0.82587959511749, 0.28147884931337064, 0.03893571226736059, -0.9366302109548337, -0.23140622812807177, -0.5965463278346861, 0.31075858139909096, -0.16253626749271932, -0.771951490439291, -0.15522358367465072, -0.6097411504991377, 0.8375579629813106, 0.14260918693776325, -0.455849114039252, -0.3780160914358217, 0.7950978130040993, 0.9943488436926957, -0.7316061920950223, -0.22793394344976825, 0.9407672219771559, 0.6871610407712572, 0.37326324018401724, 0.31632299749813386, 0.2031113191255316, 0.11319464445104188, 0.629334396728725, 0.7901152929461941, -0.22017685464611647, -0.4028575917612449, 0.48230542429587064, 0.45721847874433585, 0.18422617081783876, 0.44269456502198334, -0.2393192514886504, 0.4344428614002358, 0.8798575758461489, 0.42149161078741004, 0.2877993301771502, -0.33786004232757616, 0.8737507162184586, -0.8243826204673561, -0.18143711851953181, 0.40128774743539886
-0.5784320994924244, -0.7105961706114621, -0.412643823944729, 0.6198355271031017, 0.03805637420720087, -0.11612099905649398, 0.7464163698862585, -0.1697390629641009, 0.9879334678250826, -0.6635106213972186, 0.5192074990609608, 0.38485392196846213, 0.2349948707413736, 0.4001955058744193, -0.6020061673017896, -0.5564218228118052, 0.9644958835661117, 0.0027039683601790543, 0.9107915309466503, 0.8563457963202401, -0.3975314310889613, -0.9443429339495353, 0.5963851272391865, 0.06791192663034895, 0.5154217529288134, -0.4942593481820121, -0.8182028327131192, -0.5724467325379976, 0.9038656830085738, -0.45362405662810756, 0.8982768698064771, -0.19979099792367094, -0.9003809463771364, 0.549805325271771, -0.2003491698023323, -0.9586060890332351, -0.3140551551635449, -0.3652472461150973, -0.007825024378520062, -0.7528690841212238, 0.9152995538564008, -0.2496291301025746, -0.31713944462857757, -0.91488498676777, 0.3840067206400999, 0.2724986310469766, 0.08915104780807415, -0.8733863292854158, 0.38225106493511474, -0.5812836687497724, -0.7439740545202866, -0.6287354874926807, -0.09557450141851964, -0.8283254413657044, -0.6994046566377969, 0.9596092191819463, -0.17864091176414743, 0.23180843737505086, -0.8637075666490426, -0.5455773557072972, -0.22613661705185617, 0.5955275493811647, 0.9578893982525574, -0.4843555794556096, -0.2855861448441339, 0.4316038324597691, 0.4270988357183132, 0.877608047567533, 0.7106088661066843, -0.9436034731612057, 0.9346216120065352, 0.8492923045279532, -0.4130312649432786, -0.6294380342784747, 0.40502139143368066
0.5062604811547038, -0.8058322856637052, -0.0539785316211816, -0.2317399945052414, -0.2310949627641885, -0.9291369829473854, 0.6219386205881685, 0.598471889343219, -0.9115393084221783, 0.9455447781944541, -0.9809198527200835, 0.6357095634165324, 0.45862350762622484, 0.5455552770225438, 0.5416912382604759, 0.2500142161828349, 0.3798639381167148, 0.0077488624180674925, -0.7475902463733948, -0.3029441893656335, 0.1145646496364745, 0.4484346946309068, -0.8443755766789893, -0.038850589148148096, 0.4332821067384347, -0.020682885161968922, -0.9558558915398936, 0.7084271035319283, -0.1290872837953425, 0.26576998068490765, -0.42368518865952165, 0.8893761877809379, -0.0310190282017615, -0.15584233229457523, -0.5241372167226923, -0.6683899214610411, -0.5058188048624328, -0.9788925428846071, -0.2218765333113848, -0.11434863464415601, 0.559628446955291, -0.6894894677590475, -0.4730239776666312, -0.8864008390541365, -0.09093016977622748, -0.7489484893584777, -0.15523261542173117, -0.39065718465293964, 0.1610814828960354, -0.6679942727791102, 0.8939967868476999, -0.17140658002472042, 0.30747371840024096, -0.6118247537095503, 0.2793534297575859, 0.0019488505275639945, -0.9261824688408389, -0.3101244410478694, -0.7600754950726998, -0.10317439939896422, 0.14945793093532922, 0.741046964367587, 0.417192690647322, -0.9081534440714916, 0.1374929391247437, -0.7268856235974273, -0.5812057191819293, -0.4562751474198681, 0.3298663741260843, 0.37310606276262215, 0.31946675210458464, 0.072015894643918, -0.6892225685732214, 0.485764996023196, 0.30818945038684165
-0.4372514920855157, -0.010806901469744723, 0.7352144499832178, 0.22050624783055595, 0.9450332474260379, -0.05979535300947125, -0.5553478059150669, -0.0044758757066931665, -0.2167439127566868, 0.06978215627343731, 0.7870462015952597, 0.742666649970321, 0.8443946462625602, -0.5586736096016778, -0.1771140720365314, -0.8582543702300232, -0.8933881606585223, -0.1955179036866732, -0.8190876278525918, 0.5548404965824933, -0.826965386016266, -0.4453471676741665, 0.3590881798211729, 0.30261690700751664, 0.6103822639405987, -0.8533777051139908, -0.15488178954822152, 0.8633769903510404, -0.30887845638385736, -0.23159293394209168, -0.7884950328187967, 0.9825269026150103, 0.8325510139132177, 0.41274610490176755, -0.4203405189629952, -0.1970218195307436, 0.1938294658712616, 0.8563237372614103, 0.5970854100235479, -0.02480665116131142, 0.18888381922229547, -0.9085126078723049, -0.10018590026513863, -0.028738255806469937, -0.6177708510524544, 0.8199192623636606, -0.05047330112750714, -0.9250954157351488, 0.8105613215454825, -0.9093570953251522, 0.5377159496192774, -0.8873043645675192, -0.857502974096445, 0.6264726634902829, -0.2115035887108503, -0.18411282012099983, 0.5712029390220597, -0.9895254074190807, 0.3025799830811904, -0.5684224210546152, -0.8249794171414888, -0.6534771798171648, 0.3504864190524466, 0.7008818026529284, 0.7990495145121517, -0.40643371265885664, 0.4489879801644343, -0.9111840782001885, -0.9324570349298296, 0.2339538615537471, 0.49465520510143124, -0.23288555457718507, -0.08084591405834063, 0.6171266673193743, 0.27257301819610236
0.1564774439717711, -0.4068220881398985, -0.9675402978391596, 0.047062108107258194, 0.10860730686947351, -0.25122658515756857, -0.8797605360541922, 0.06319352299531955, 0.46083551417660695, -0.4291242398594992, 0.8901021499204291, 0.46615672422900456, 0.18195602024082813, 0.45530476295301625, -0.6025452317448696, 0.5455096487845563, 0.9063830403926127, 0.9568731297543969, -0.6730181801685711, 0.4426408810842135, -0.7817538877796566, -0.17934756511937255, 0.8902674941934792, 0.5344026951075933, 0.6168942408603284, 0.6988601273809474, -0.2407740441411863, 0.23013952857225473, -0.4087343886874386, 0.26446591970236977, -0.6598811727093752, 0.12500312395912472, -0.048219738198272744, 0.14133059584355134, 0.6293104247078354, 0.8082272167448066, 0.6951713403887982, -0.39310587742497916, -0.5749939352273152, -0.763889217804028, -0.09812728019100714, -0.20715617369684747, 0.8979706512609544, 0.9754982994279677, 0.11190950916570142, -0.48270602457107525, 0.7888374706871426, -0.5095268264064949, -0.3350196935896661, 0.6623648992451003, -0.9925748099148604, 0.2736095108515504, 0.9846301954198751, -0.05941482874628967, 0.5777352597733234, -0.15681794799784265, -0.6288357846341466, 0.6840588039493083, 0.1760672168031876, -0.09822175936906241, -0.7400797536578803, -0.9766980848951534, 0.31827653480205775, -0.4789469456616273, 0.9836242421716856, 0.7976106044916214, 0.7558934644272974, 0.7590849175492997, -0.1347733891195424, 0.5022021083800658, 0.5379243885889458, 0.7776586777501957, -0.616565206769982, -0.31898056928921426, -0.7801162059374058
-0.47741126090627395, -0.5767716384238888, -0.3998484089039658, 0.16087697298729697, 0.8615806606192642, -0.8712281187599986, 0.5780399365415829, -0.7607842021666649, 0.9875581646758178, -0.5933418674540265, 0.5283084008657513, -0.8508589523636725, -0.6932864265596317, -0.4258166577942153, -0.09502718046627301, 0.6516129763363145, 0.9253576610222631, -0.48065318969035786, -0.8128963373867011, 0.8237277836495336, -0.924911745820614, 0.0762954738162338, 0.6993175389763664, 0.9375390189465964, -0.9226581674147769, -0.1785434253903766, 0.32746452946322124, 0.8393290449180983, 0.10311026844986948, -0.946936278984424, 0.1927349747409508, 0.25703769785314323, 0.9003884302907146, 0.5136450700457416, -0.922757093431021, -0.14417513660816628, 0.6267484913761687, 0.0015304661377610884, -0.9145166026633618, 0.14720036841770812, 0.7689884847789337, 0.3894137752985092, -0.056515176364700714, 0.6651799941634162, 0.44242193294343934, 0.342415279074479, -0.9705209576605673, 0.89625176290268, -0.07757396557861718, 0.5312234897771964, -0.15124372273023567, -0.8348820856993924, -0.8183547418793062, 0.06197321931562616, -0.5821257477429511, -0.19803170468039388, -0.3807792397254395, -0.4425138395749051, -0.292946976981876, 0.2782661302670415, 0.5373221019691954, 0.23976778416646605, 0.8022574752330898, 0.8069850497836275, 0.0925139283514449, -0.08942315721002903, -0.4899762290779406, 0.2705444315382204, -0.11148510656521671, 0.5760426769275804, 0.1072724365889326, -0.9076046200229815, -0.5990753870219883, -0.5583910941919084, -0.10520828387475278
0.8831385923718726, -0.9861415603500707, -0.4276254833117239, 0.27372596743538136, -0.047452550703318774, -0.7771425783772363, -0.12417648225786326, 0.5348872327429408, -0.6756807286919546, -0.6380713547996621, -0.5974356640658813, -0.975017995668094, -0.7851957866986035, 0.2245997236588444, 0.06425596771013176, -0.8932463888333295, -0.36089901219433385, 0.8475262374832773, 0.2116711499907975, 0.23696944975585277, 0.9190757134103786, 0.5686120122889617, -0.9009048475300823, 0.9626594179987848, -0.27739484988929464, 0.23484950632656743, -0.09484059952232338, -0.13559472238039127, 0.46548882772088307, 0.08164414694619282, -0.8473894275418079, 0.029080892226576616, 0.5684374207142606, -0.9055692484397255, -0.08766515545810893, 0.39708943107237404, 0.6664693535787753, 0.019296587134552734, 0.7978989023812773, 0.8431145098979522, -0.3455101567780563, 0.21224692746107898, 0.09800988845847947, 0.3132871982843177, 0.9593016787845579, -0.24765081459375526, 0.6241830190552968, -0.21286206374690098, 0.48459245742788815, 0.3221706040030776, 0.01589717455184303, -0.23329179632351504, -0.6296720958307254, -0.566973334029778, 0.7581753665595352, 0.2752813001662968, 0.4302756685244411, -0.8625976986031221, -0.8668065745985731, 0.9514410433577729, -0.6728911985613131, -0.7288472776884367, 0.6341862327192929, 0.6612985499567383, 0.7270471682115658, 0.2264188726612728, -0.4041828981454736, -0.42858109472993133, 0.8011929727308922, 0.5130575727769973, -0.38151326026078314, -0.6176803722671291, 0.28194996325913646, -0.8439618283866315, 0.0027504486119358518
0.23753906578634387, -0.5512098900054951, 0.5533750967696145, -0.13517914610920512, 0.9724984952337845, -0.9240022642092374, -0.7225003631101741, -0.18604677723176577, 0.5197924460596814, 0.9051319002031768, -0.9034544853190982, -0.6425855585858833, 0.4728492772050017, -0.4689641420222652, -0.8925860051479786, 0.16684028050947308, -0.3531232381640228, 0.030611340410124477, 0.34834778093877095, 0.11290446022045764, 0.6800484563529636, 0.2645699909379262, -0.31075210968351996, -0.46146065272278936, -0.5501079212353508, -0.03758715998018358, 0.8862741341825808, -0.9328615419206017, 0.824320570004526, -0.9983461190607645, 0.09500226900894315, -0.23515631447260477, -0.6980307591949431, 0.40706299557507464, -0.02347780926114007, 0.43012344829234417, 0.7402262886143496, 0.6011551965617548, -0.5004729798617666, 0.9050478943200146, -0.6435349271309905, 0.6528437267123324, 0.039745683923143815, -0.6116358272711118, -0.5111564302869818, -0.676433289142977, -0.9847824368248084, 0.05822937183301402, 0.37245396633250394, -0.08945671065828353, 0.2922366841533459, -0.20852382046058526, 0.33191500078563196, -0.4984108069645137, -0.29267914522944816, 0.776679271684241, 0.5759955498838383, 0.1294016188482945, -0.7516271407930382, -0.0025560995893600946, -0.9880720657512043, -0.5847672717190928, -0.6009321141020791, 0.08074821196724091, 0.7320762620863284, 0.32824826044628574, 0.6031410046967904, 0.05537816894188374, 0.9938828247347957, -0.3955590226714363, -0.12894538315888449, 0.7793855088605617, -0.28237918820045227, 0.9220786822221592, -0.8138683493628411
-0.8751194643195839, 0.4506398751459808, 0.9296315318677713, -0.41492175525029973, -0.7551113038600787, 0.22163195339496156, -0.9308074602235994, 0.06712510816178918, 0.5335310138989033, 0.0788690510870449, 0.9903332447348334, -0.6371959795534106, 0.30579721144507355, 0.3145854781035182, 0.8327195401889322, -0.13982453631420722, -0.8241132942431726, -0.18315409115493209, 0.18477318591439884, 0.9562962104658976, 0.3792071019147829, 0.20896716445524932, -0.490421672295299, 0.333222733002291, -0.4784737440059459, 0.7273033163452278, -0.49834468966794043, 0.9650548460517654, 0.4495017549263105, -0.4588224819935376, -0.6540279830634028, -0.35965365825024787, -0.7320670187853064, 0.07953094837772179, -0.6863812205800124, -0.9000213902656835, 0.18049900601257152, -0.05871846929525493, 0.12109860859757449, 0.9776079755755629, -0.39383930041731574, 0.484410776486047, 0.7797041091639816, -0.9809738698999078, 0.6879709304092247, 0.34406887592199276, -0.37680215038624354, -0.037753678028560334, -0.6298339110232818, 0.6636248833782781, 0.9424021273768628, 0.506785851493174, -0.1842822282648422, 0.876458727378854, 0.7894340728339122, -0.06268396708011714, 0.7002251849822838, -0.15339880993916521, 0.9824450688795334, -0.7409151338930755, -0.44483742499669576, -0.39198513705382254, 0.18935026496312757, -0.08559426582140084, 0.6482990382232656, 0.7070785737072076, -0.7601427819705204, 0.06684119695288349, -0.7373021323083595, -0.5790813893012183, 0.13635814674707714, -0.35868931700446627, -0.7269022747972755, 0.7823213532157278, -0.3032754361852241
0.047966058536089484, -0.3844669891836392, -0.5663609510117058, 0.7780391228089805, -0.3015946479694578, -0.20783516785981426, -0.5022947753745854, 0.7445815853979001, 0.5732891947092051, 0.19033469115335855, -0.3915874689220149, -0.7600272194992717, -0.7460790985813777, 0.373459475095121, -0.9551201956813977, -0.9251950645103437, -0.7239524876052585, -0.9369475517133283, -0.8221833132948326, -0.9724385465105256, -0.23299492205612138, -0.14119194794594137, 0.8708374208937752, 0.5267372745677812, -0.794199654555924, -0.310207484810328, -0.000470342187298467, 0.5084874394143446, -0.8696690366760484, -0.26030336405262755, -0.7008303624612395, -0.07948254308243952, 0.8973650050039388, 0.516336505389694, -0.37300625392971165, -0.025651709288515345, -0.15865414656929122, -0.958232862529671, 0.9458433612918915, -0.8450932655459726, -0.6697087879144865, -0.19016400143425294, 0.009878587610192557, 0.5784583509724848, -0.4952411541506443, 0.8208905193156655, 0.4000971566391356, 0.8047522875954298, 0.6891280524471091, 0.6690578261221574, 0.44699685706929904, 0.43845554119581376, 0.23893538093058808, 0.3673654883747144, -0.6833462481418029, 0.05051922982558077, -0.4227664702415179, 0.6615619913057476, -0.8799911569189436, 0.4620755620681529, -0.6369677539379843, 0.6281443286784429, 0.9932034026784677, -0.5704941509890045, 0.17969187987555424, 0.2725741892129223, -0.7064077700782967, -0.6808820518808605, 0.6808169992664936, 0.635762391257606, 0.1779788886694238, -0.5273186013497004, -0.9998987519217386, 0.530952691529309, 0.3871890180529576
-0.16158363860389757, -0.7849345790692137, -0.8856724515061227, -0.9763099940709061, 0.39226716721815746, 0.5854359826271471, -0.43361253976397496, 0.060307984388142444, 0.6230421070684096, 0.42215871629963075, -0.5947667859436252, -0.04356241251235193, -0.36848948020145267, -0.3658455651523065, 0.38516204123998365, -0.3013559048618082, -0.620069540570773, -0.9426545066688599, 0.10704606237828607, 0.2487356860160732, 0.9790792308895613, 0.7420152989163844, 0.27223718300442457, -0.3808342931948214, -0.3027513728902873, 0.328862842548991, -0.7151658913850838, 0.901744720530659, -0.2824050069197601, 0.42035344007322184, -0.7760663156016125, 0.9293113644963542, -0.47264703190627566, -0.8730722318412059, 0.7331396475521337, -0.8350668317132328, 0.13989266114149457, -0.5446324956219808, -0.7786524966788382, 0.29419291364468014, -0.1272530944135175, 0.6212279848776587, 0.9717617894663872, -0.5455133823768192, 0.2026828227092099, 0.16220789320674145, -0.7254797983268277, -0.6131070792701117, 0.5256301927188312, 0.9435615632854408, -0.843527749624001, -0.30158550511903215, -0.8391021844198701, -0.4188020158563126, 0.17733878671367975, -0.7015259313495772, -0.7205320417317718, 0.07006894938509323, 0.1731080999842538, -0.4426359296490867, 0.5628762482226621, -0.8331798072832419, -0.5658927161468275, 0.657925835797732, -0.3357578007138402, -0.36471037530870865, -0.5149199419981798, -0.054365852569215, -0.057684362398508604, 0.4316307815349192, 0.1556354428534279, 0.22912018888628305, 0.8019170538651021, -0.39326615037974433, 0.9015084136361593
-0.10451583906725981, 0.1951608890697396, -0.8444926799132122, -0.7882004827229792, 0.4756023177000621, 0.06023624566011909, -0.5073709447342671, 0.6247395195987471, 0.5661101867998872, 0.5049077934887816, -0.30763332518880304, 0.14770628031668576, 0.785719199940643, -0.7879079753780678, -0.20509252507920328, 0.8919214128403556, -0.4276113819153071, 0.14571456032318952, -0.4934791073064697, 0.012451488448290693, -0.08978135342561488, -0.6561696891701145, -0.7651557265202471, 0.16407958329852246, 0.5858328956645789, 0.16524691400624025, 0.42745516581878507, -0.034694351142589674, -0.9992504593644402, -0.12038253713082359, 0.6243717068739536, 0.6611751130443819, -0.4031850479717525, -0.6315768436279914, 0.8784069001103672, 0.7113051454498112, 0.5986916793129833, 0.7472216561768574, 0.09276547362487753, 0.3819973213764376, 0.8563105674747487, 0.3911418760476013, 0.6573962081996929, -0.04798552400166267, -0.7938211638453847, 0.46762176639724684, 0.5901427699129642, 0.6041504210787529, 0.8920023338292236, 0.9303774316191626, -0.02448762031351981, 0.9280122490684217, -0.26731566352713454, -0.14595132478050798, -0.9118208328127082, -0.4686660448971809, -0.5439194541712111, 0.8386348683644189, -0.1861484711240271, 0.403114602832511, 0.9781957031259858, 0.09991592392513482, 0.6505426491905313, -0.040217126410575066, 0.4002855072105249, -0.5379781846230678, -0.016906032537800986, -0.2047590881126502, -0.2579345043032335, -0.0332087869402109, -0.06458084008747189, 0.14107814248880857, 0.4253297632251325, 0.9260611114689845, 0.6753255338742066
-0.2723232527617907, 0.7054246227437031, 0.2788813457517785, -0.8461471998290491, -0.24932675055869113, 0.7188829627234536, -0.6854275275767931, 0.11842715315047281, 0.5643025481265989, 0.819047137880784, 0.5449518907605864, -0.8594772248370317, -0.1033790940698669, -0.18103789173189533, -0.2179108876269611, -0.12028992518414716, -0.5429656077131995, 0.8686625111522077, 0.48811612631361534, 0.41692969583926986, 0.39087265095255663, -0.4298395368426551, -0.7999971179130334, -0.7518867714072508, 0.7180370965042724, 0.16142137396527723, 0.09239548870546432, -0.6118912260593148, -0.9147258544542254, -0.37940682083611765, 0.1670639076314866, -0.11530788690931759, 0.17237530864020023, -0.8698062975611278, 0.7643717298520669, -0.6671163943000802, -0.28822000222036426, -0.3794986615653806, -0.4165717672048923, -0.8547673008008858, -0.357917299418395, -0.6722640010617535, 0.3366035975392734, 0.823465447412715, 0.9510113557630433, 0.5126595061854902, -0.5548100463363577, -0.86453773807624, 0.8415889163300747, 0.04958235911624165, 0.8054486615342102, 0.5817906066965026, 0.9523007464741711, -0.7137822888391678, -0.4725266408553912, -0.41196604409755677, -0.623442596801377, -0.5486690376903725, -0.23195113639907827, -0.49748632698842643, -0.484415914966871, -0.8100495096415159, 0.499976372644396, -0.6872926804574448, -0.17196011727883098, -0.20558639957553337, 0.2481740895536948, 0.4946158576226045, -0.6406948441067493, 0.7100115495987511, 0.9432532932874431, -0.3031026167488817, -0.052208698478330984, -0.08091227172397808, 0.12476957128783495
-0.4891727611014032, 0.4029623242626288, 0.3749769600464443, 0.5847043606805178, -0.5306343201201713, -0.4860518658140749, -0.2002701503203772, 0.9834785111817896, -0.7196412753634567, -0.876539988626257, 0.037840285311738775, -0.7032924453934015, -0.15426449717712343, -0.8898970413267402, 0.446870531326248, -0.7563906535138498, 0.9212210960371761, 0.6025782003024585, 0.7910122554317951, -0.45337881342469055, -0.24452668383576448, 0.2854198234136742, -0.21575507488984247, 0.013803781180096397, 0.5500670509405183, 0.6302727861806141, 0.0900515590423634, -0.3937370565831211, 0.903780033534451, 0.5815786014005018, 0.005998307004733139, 0.42391633704893783, -0.3798567113456235, 0.11572872842395121, -0.2550221393615879, 0.899392160195891, -0.8383603757650624, -0.3955119448346851, -0.7213832193270351, 0.9853285708573472, -0.23761898638866397, -0.710269515755031, 0.10468048779276007, -0.11772540899341832, -0.1284211706081373, -0.29454296344966213, -0.7103731475584216, 0.5684456151101411, -0.9632349224833057, -0.7865178965534603, -0.48968210936525924, 0.29209780635622407, -0.6791823384061941, -0.818228577060049, 0.705965969747187, 0.06426054716770269, -0.1060132681936059, -0.4262254953843496, -0.49330246842802294, -0.5526163122490688, 0.00789140965937385, -0.22689846650641066, 0.6760793230491484, -0.0291564984000523, 0.6684986346966251, 0.11613372623438023, -0.6944476400371999, -0.9247415956218235, 0.04423133571639948, -0.07248545186388711, -0.6299450729999232, -0.1798598308840722, 0.37425468140326856, 0.07190067894999475, 0.5301348911925712
0.23957629899527033, -0.32669686211748816, -0.12519343989904108, -0.2514437678918089, -0.644201251082198, 0.677968893774826, 0.5595598787282738, 0.8732774244836365, -0.5934738849128158, -0.8799598621423357, 0.3103295834026909, 0.7809904320845695, 0.5047079369759433, 0.5146728454211265, -0.4772956535641759, -0.015571835426143377, 0.5789787685412708, -0.18770579631610174, 0.2846701234338509, -0.017035783876179877, 0.1553307271109814, -0.799180038723915, -0.5541697263064806, 0.07002965390773142, 0.609831452285563, 0.37204001229629835, 0.6061052493937291, -0.365724992807261, 0.3880920830068981, 0.23781859776606007, 0.7605957524172444, 0.293189014005939, -0.6788553169194147, 0.7762328235246221, 0.9401019085998352, 0.2635776351171222, -0.8463234209842292, -0.40700436202912593, 0.6513379915406325, -0.241399055689421, -0.3461203854937467, -0.5734319647805326, 0.012551282244865458, -0.9132197535608229, -0.7581111002121923, 0.7538967035436497, 0.9049942617975493, 0.9010948846059796, -0.503583849366438, 0.9658649484502417, 0.8998849904343489, -0.4399081922636743, -0.9754243570081123, 0.5160707296850644, -0.4144097456039644, -0.3521416540342308, -0.16804660633754986, -0.8651918975481392, 0.07963274517278451, -0.26718383400058165, 0.5356962861709125, 0.2811697075386981, 0.43039245948521065, -0.08923330857104927, 0.1535449774387998, 0.6422989862256498, 0.8287316965953462, -0.1271995682516871, 0.057585003766649656, -0.9513170879132655, 0.008852958939647326, -0.7402656915087502, 0.7526536586602472, -0.3914116504080831, -0.91271671037063
-0.8342024498166216, 0.48271051409292376, 0.40624845316867964, 0.2807426709620664, -0.9088089207771599, 0.6217661870945634, -0.9611397378500426, 0.029844113388611593, -0.6415203411220896, -0.25521184373736805, 0.9406284194597689, 0.5292626363699298, 0.014259511645824396, -0.9912573663023898, 0.6195626999276418, 0.8694579909558691, 0.4215496982904736, -0.947596225850381, 0.9906709916482819, -0.7302315579841325, 0.611356036770518, 0.6071594072864102, -0.6791541176827427, 0.1355317737887365, -0.6741958689096976, -0.6663173266109572, -0.09910096197098417, 0.6042987301450466, -0.7455249739723833, -0.05908642183692603, -0.9999570017817412, -0.8629280534619643, 0.6609355854579229, -0.5461015710200443, 0.5716276538285205, 0.12484895883691927, -0.8064076024181013, -0.5269535373075125, 0.10966984393167767, 0.548375238388211, 0.06020040767907675, 0.45281385671251506, -0.47411453997026465, -0.33899839386064823, 0.19863428050063137, 0.2504829000422184, 0.7175736154691292, -0.6320580646346854, -0.038340673003089965, -0.6966370466555349, 0.430213670079592, 0.1373429301369522, 0.7074296437507326, 0.4391598582124008, -0.7487601613829624, 0.021492267838046253, 0.2605953251023134, -0.0739061040172051, 0.6635639697735676, 0.42656805085444915, -0.6012374595849566, -0.8828407419632733, -0.2266749450573693, 0.6496381155598496, 0.9019597197482994, -0.1455787894901528, -0.6414692960773953, 0.9755087608571733, 0.926943577474332, 0.35552922634293216, -0.8805290866400517, 0.28755951488609144, 0.45610501048897456, 0.9593450765995697, -0.07775635398042047
0.8040176426786592, -0.7038381797649209, -0.3840967287864152, 0.8264211443796081, -0.06616024618557459, 0.9009328904273737, 0.21554663712778765, 0.4071464211289011, -0.9631168439997535, -0.768345194856737, 0.7827043507200027, -0.3020618847838379, 0.4910919700265888, -0.7919638183282514, 0.04416445070653907, -0.0695445759969604, -0.8751828695949491, -0.7241944412869983, -0.8539800066236101, -0.4741793994785608, -0.9404238850155644, 0.3806483636983815, 0.1050093717987659, -0.13109819316801508, 0.4793711594125982, -0.2897645155437365, 0.9830501325198258, -0.6222713967824283, -0.3459852652327853, -0.811425332166678, -0.593810684586729, 0.3330048334420166, -0.36488037541060736, -0.412624671141685, -0.03308287108858021, -0.8745081117488733, 0.24529479882782113, 0.4750478749477667, -0.9283728203716617, 0.9912145836462729, 0.07771122290071553, -0.20758388703800001, -0.6446517092265505, 0.29957531233126344, 0.7896152569089625, 0.90274755729294, -0.06307473644110884, 0.5053613826748489, -0.12057786451543517, -0.36160924887427726, 0.8269335711331016, 0.9217904336523297, -0.4926377862393623, -0.5360430344637783, -0.909938231034765, -0.9091729823258463, -0.9009233604375035, 0.603669831804797, 0.8789616091315526, -0.7493600567677978, 0.49166355885820323, -0.31054740513502255, 0.6084332868357545, 0.06643107288353489, -0.3023740982967986, 0.1834695997553193, 0.3013945600409804, -0.7475650146365549, 0.8213566392429255, -0.13322433119502053, 0.9399341341312293, -0.8563257410464211, -0.902143740405092, 0.6174439954813531, 0.3308638127899326
0.21961545320550613, 0.2987815295183367, 0.004172975817746671, -0.07685677649224187, 0.8797993718037072, 0.5797737357299768, -0.9807853169077205, 0.9670014861238578, -0.12536487888650294, -0.7826095671570341, -0.3747100493100901, 0.7075663966074832, 0.8178068121984667, 0.8648624090118839, -0.5693568726948093, 0.7791016642783211, -0.37292897245246426, 0.42581415686815083, 0.09833488830381887, 0.6450352450181942, -0.14661450382419172, -0.3937277922479496, -0.6649520301611203, -0.9887572768753254, -0.34387672654176704, -0.24950857217645206, -0.273903504845725, -0.7178818946820669, 0.2518143289181456, 0.966324925043569, -0.9012633942450052, 0.3447557345039258, -0.6071680609181369, 0.2985754538070018, -0.7966378792465556, -0.39640189572468554, -0.34188294087489224, -0.18222750553346634, 0.34164895784788873, -0.9506230901225496, -0.9724336430162874, -0.20035782126025525, -0.1008982446216855, 0.22694409663340664, 0.49845848896653067, -0.10988998449481713, 0.2947100210987368, 0.9378717358716449, -0.6756650319193724, -0.3218465975871334, 0.14174984154876613, 0.6164352987483506, -0.6848322259437873, 0.10453329590784888, 0.38959362069847225, -0.21292582898726353, -0.8080006111852973, 0.4060794858664938, 0.9418087786921663, -0.1325008529336893, -0.210908902315583, 0.03458465487201545, 0.9911749658168718, -0.523775035255841, -0.15150006236980662, -0.4118869051736769, 0.2747155474102896, -0.48725875298489374, -0.462512815122178, -0.3768712778717691, -0.28859131037559527, 0.895038342442739, 0.8814237949473971, 0.7970423440259773, 0.9946582108095181
0.9522435373751148, 0.06123936306304412, -0.7714387444250801, 0.0021124135918557663, 0.7224479331531031, -0.6884490290072391, -0.7660141229479156, -0.1816260043279021, -0.9699939574192769, 0.8403502707657644, 0.6977413157302346, 0.4653939095335482, -0.4712226079305646, 0.035499927325014724, 0.11464411908473826, -0.09141194967577881, 0.9136307370556991, -0.33131436522496704, 0.790068213151295, -0.875384391035507, 0.011103730387706623, 0.7516320782506525, -0.9517013063297624, 0.7220013685915405, 0.6394550908514094, -0.45471971438166614, -0.8488391569866911, -0.3372497537360344, 0.34447525032688064, 0.7003503156872148, 0.45763869502495247, 0.19247507637839467, 0.09872571991570611, -0.3697997017191157, 0.42900753624831056, -0.9031896794625203, -0.416297212026969, -0.6045638431713822, 0.6208514490401806, 0.29023941677326004, 0.8643447207157893, 0.6627067619410734, 0.20477762844325964, -0.23451776884483255, -0.7481103279246311, -0.547095425200042, 0.24747264981872696, 0.4348051715134149, -0.49820794892659404, 0.5666757217464538, -0.4984789411391928, -0.34584621059900567, -0.18755496623403056, 0.2017692752086222, -0.11175976730002057, 0.1299949816950714, -0.0034190131193487794, -0.21199380239228116, -0.7098793401957284, 0.29039475771526657, 0.9770551892922779, -0.7078388953881372, -0.1550000418311961, -0.7179147178902676, -0.051811410646426026, -0.5988923478209807, -0.7202102152177279, -0.8104183592244238, 0.014371568580379357, -0.8076344718648367, 0.8971956778495951, 0.12833296707461583, 0.9108385054135288, -0.6361080906959127, -0.3730212354461795
0.7673474819625277, -0.6234966495185836, -0.6198241984211146, 0.003645778574274061, -0.4504444687285716, 0.4550265037635066, -0.43758351022315667, -0.6723578384139897, -0.054655053608116066, -0.7382706539308828, -0.137938209949668, 0.492318377699982, -0.4218231184728407, -0.2754054873002607, 0.23018969202849204, -0.49579989793492274, -0.5589781053842673, -0.27930232438244307, -0.9726244436549583, 0.32267450443604684, 0.7604163397096637, -0.611516839236121, -0.08198905096693077, -0.46158949600819765, 0.017608571023239428, -0.26916441773125355, 0.9305308245501456, 0.0216462987691024, 0.9173210865849595, 0.9113894729229588, 0.2973441256251812, -0.3090264696264011, 0.6694765498963609, -0.7010989976020063, -0.29042728885466396, -0.03938888908185856, 0.9136588171417794, 0.44285517061039936, 0.10374230249346184, -0.6266274208805807, 0.6254023187820805, 0.6009223937762069, 0.5804428669428803, -0.3546356370362389, -0.1952080728238954, -0.4274116784120072, 0.9025201478949829, 0.2392254213990599, -0.906887912249295, -0.43263438537977805, -0.7981385340579208, -0.033481081019147485, 0.5572842706073189, -0.6592796822112001, -0.3581996570015429, 0.6672591388441127, -0.6232252796604478, -0.8624291524429073, -0.8035683105501885, 0.3573178397630916, 0.3793487586913402, 0.8208010086167419, 0.557352213923823, -0.6121301354032771, -0.43573051803319585, 0.4093534480554979, 0.4698138837662835, 0.10824025200315779, -0.7438876468791102, -0.12512856450842724, 0.7180422738726269, 0.9530657063490087, 0.789109415459635, 0.5264024432933483, -0.9574467809184251
-0.14440448992897892, 0.8108204745168224, -0.17753293827245553, -0.920926924266602, 0.7550801075987916, -0.8354814055205315, 0.3981481263125577, 0.07092337209955657, 0.7359704727672747, -0.864736014568781, 0.7517285788083066, -0.41092861214466314, 0.3125506081426721, -0.14830146880153494, -0.49469816157937885, 0.7605518819186057, -0.9367872086460949, 0.2948289634154113, -0.3476026075287453, -0.509481719738631, 0.05793307175513096, 0.3939149489470797, -0.41774618669740615, -0.9961562225906353, -0.33204814836087904, -0.9443446825130484, -0.21635408123825428, 0.7183524897699844, -0.9074452627503207, 0.00026901078883634355, -0.8921738806038912, 0.38795357610023284, -0.6074787244607984, -0.5043311744083234, -0.7658781849476823, -0.32164729729281394, -0.012787053830193074, -0.05999462226940766, 0.117410548997821, -0.8029382392542477, -0.9468425354442482, -0.7568650237096932, -0.8354711412772842, 0.5702504542922293, -0.41218266746988563, 0.20944836089295515, 0.8896332086779566, -0.5771752921296032, -0.6400296894590163, 0.7941086270504143, 0.5363638541355131, 0.32157433793875967, 0.35808604988867465, 0.9246880883609538, -0.04638168066626003, -0.4819794166751592, 0.6208012021675136, 0.6188340802241945, 0.6761009309335124, -0.2969667313027564, 0.8547712286231821, 0.5432036976060717, -0.06133334265642887, 0.8808050873919635, -0.5328591584001976, -0.5566692466014778, 0.012838723898201287, 0.16382722360018054, 0.8448064266646913, 0.32297559227175077, -0.9090000849096449, -0.9012475774466808, -0.8353307078726804, 0.8645901597152243, -0.2034257368091934
0.7338567574705235, -0.6005487712951959, -0.6742960719684934, -0.024864386695476998, -0.8761840221729851, 0.568343124087777, 0.3324671169798257, -0.7783632298966938, -0.7640485190670605, -0.8209405217201162, -0.5743265766709786, -0.8739717395716906, -0.3628893370382428, 0.7373042234953764, 0.7614816516730389, 0.7653301074494037, 0.1315598610977689, -0.5893247168429976, 0.39752480579486865, 0.6977502962045419, -0.6804316279751714, 0.5179947682584741, -0.2081293924095212, 0.28174334920990973, -0.21556733964334848, -0.3378221674667442, -0.843975773588433, -0.6099591784623067, -0.07959368864892993, -0.1855323284784478, -0.5028775849986123, 0.7188440891384319, 0.7005220865057484, -0.16005853810551582, -0.4405163504357491, -0.5272945340996233, 0.7065628742083568, -0.1913186101420623, -0.9347141886244399, -0.9874974964910362, -0.497208618770815, -0.5280591679433486, -0.8062648325657769, -0.909825007387232, 0.6780632674907159, 0.35200805199999674, 0.22871792997640197, 0.4173993497250359, 0.21557462325083238, 0.4043398433937014, -0.9988946263309172, 0.15991697737999952, -0.9029234094567148, 0.6414057882307268, 0.17193987365446167, 0.5277264411007598, 0.4214000864038509, -0.7353803782252659, 0.7329786860331697, -0.700251097329403, -0.31444406518167395, 0.026545068194066834, 0.17454315075322774, 0.30922294242115883, -0.5626860653445422, -0.9214546633463719, -0.966192349855096, -0.19313918138285263, 0.4354012036062244, -0.0958185259175327, 0.9770459875803554, -0.3427363478672004, -0.14831662629695885, 0.5851725616718124, -0.8102324673949264
-0.7478118064164203, -0.19823160889734304, 0.12256164228826982, 0.9314325136696726, 0.08098815645226676, -0.726305873669248, -0.3408453492056651, -0.7340454260203968, 0.9098030348603663, -0.3565472325921686, -0.480389858908854, -0.07041444803103847, 0.05774371614828411, 0.8121183127351999, 0.2344670282487975, 0.7323762516562091, -0.5470489316796878, -0.8567431065511859, -0.534912571152391, -0.039856594797363254, -0.013331831283688977, 0.9851362655978928, -0.1963114975484599, -0.3102725142998146, 0.2452220040897588, -0.30449518730989267, 0.7276129976641728, 0.41967635003526427, -0.20825527817112066, -0.8556404685581418, 0.5816697453616291, 0.9526713211060742, -0.5205736022007152, 0.03709608323345748, -0.8843925677422657, -0.7255178305137022, 0.595721454994603, 0.573489224577505, -0.8683230672530584, -0.28273617989197364, 0.961467430013724, 0.9391148918463514, 0.2193566851432145, -0.6428119450595324, -0.6427381969363313, -0.3292419110878053, 0.34501715403209365, 0.852362175387213, -0.8075815797101944, -0.1886671610313133, -0.49118822967133324, 0.747596019210814, 0.1898856227049488, -0.47516312239900405, -0.378080665369692, -0.309565941952461, -0.7896485206731705, 0.3118581524113071, -0.42403532122511134, -0.17655240818183326, 0.5913071440897575, -0.6530409915131008, 0.13422690975494023, 0.6220768568131172, -0.5465258615833806, -0.16875347513465355, -0.498865827655266, -0.36597168874640085, 0.279030489464974, -0.4593983370486172, 0.6905201067263409, 0.9993287052305857, 0.7097794984689574, 0.8048560043884274, -0.006469902624642199
0.5204230199562931, 0.9952371742891493, -0.3520602145528051, 0.9554923398012836, -0.4367559247399435, 0.4780728960352616, 0.791048065207935, -0.633138784654693, 0.8702597960967653, -0.7858779775202169, -0.35083111458708505, 0.7820095237381328, 0.5073214693717212, 0.28557074114560477, 0.9064611349190956, 0.5766130921152155, -0.2796334307769257, -0.4921410484411881, 0.9031984644587143, 0.48454810361887857, -0.16912218205198704, 0.7642176650044807, 0.6660984445230351, 0.9022378399378272, -0.4456373743761217, -0.4361042998344207, -0.2513803680989941, -0.21547330582628899, -0.3643411594502579, -0.8603078975886698, 0.66400088766366, -0.29036316295391096, -0.6570335274498356, 0.044895399871777375, -0.7470608817187285, 0.7367383200409687, 0.9033959038178354, -0.1394829118710188, 0.7074487870957964, -0.6167620367872164, -0.6576049920851719, 0.7846746432417442, -0.20216037740611137, 0.34293944477610827, 0.026169611734232934, 0.40113415931681473, 0.6543538307309724, -0.07410333482231657, -0.8096068528373883, -0.6016971206749346, 0.6819446067556125, -0.08767376704403018, -0.8856757458540536, -0.3546137428163676, -0.5593992729132284, -0.6647128462096332, -0.010751385181466677, 0.4604430036666205, 0.4603525387240084, -0.9366252346673449, -0.47686220703311566, 0.6405865206183936, 0.749138188472386, 0.16798033901832277, -0.2270691017151747, -0.06789839255941699, -0.15026224274965605, 0.15790690457437773, 0.06679688440202813, -0.5011493830211329, -0.40160799416897053, -0.5307175374363369, 0.3647131604656493, 0.6790891330009123, 0.015319103110567944
-0.43111392875668875, 0.5455277086840242, -0.07813430485317419, -0.6740160942212468, 0.8923420146967898, 0.7549889638412974, -0.3592528695037225, 0.8915172226047501, 0.06856254569635745, -0.016578667581007345, -0.8490195512231211, 0.32752246351408676, 0.6217020649224003, 0.5258254159185061, 0.44176261530984906, -0.44509214464563396, -0.4337061122615231, -0.22263635975911633, 0.2070104344882564, 0.020180101894902158, 0.09217037553803031, -0.8194198326519402, -0.8302498968135357, -0.28329888628009625, -0.7192462851195329, 0.6697658727998581, 0.6042318893682492, 0.7485811181689837, 0.6712390849637728, 0.7921616876233335, 0.5940475431526098, -0.3965108327504261, -0.9292361840302128, -0.43541787894372597, 0.6836112949904476, -0.44541171824549064, 0.7722138051595211, 0.43343188177722913, 0.9760777143433672, -0.8846988032720162, -0.03492795516945346, -0.9337383534359014, 0.8809033662453354, 0.7666478404855135, -0.4481991936860821, -0.016891515498152376, 0.1412581590837747, -0.0642741694776694, -0.06420694096229784, -0.71984406949954, -0.3724620302410897, -0.8000666107095742, 0.9173487990039355, -0.7086437254052602, 0.5968139434863926, 0.45355685346700136, 0.5099653519462337, 0.5224909127297672, -0.055960301832854054, -0.3060734543088124, -0.7013294638669385, 0.9040044670622316, -0.311830627174559, 0.7011703123430824, -0.48281103037375894, -0.2710176047265347, 0.724596444298756, 0.9477454356351727, -0.1540247707423088, 0.19242955525466066, 0.3285327841450165, -0.7889322846584501, 0.3312719123727894, -0.8248279923025779, -0.0126643754400253
0.7989095582728081, 0.8548129697206597, 0.8435165591671079, -0.4690448591552636, -0.2772219287666262, -0.3669280274875133, -0.7018661092652687, -0.35322281168050873, 0.4036435552787614, -0.4977057863422645, 0.511605548314169, 0.7225826655437855, -0.07716335810868147, 0.7733689030847275, 0.9540294250461274, 0.9627516007571977, 0.3762175301134052, 0.831974656679737, -0.9331580821029268, 0.03949008136283272, -0.8957491392163557, 0.4141563559484105, 0.07215862106805071, -0.8775178905851049, 0.9048105378227493, -0.20945081738540638, 0.20199276435162483, -0.296569668803639, -0.23799738068993426, 0.9804126685393206, -0.6807175388927664, -0.839184581106029, 0.4149333325592841, -0.7913175269519139, -0.4127652901215062, 0.45258019161189633, -0.26826103085019737, 0.5532760942225106, -0.19430470806731526, -0.7861941506365588, 0.9512838178759142, 0.928362388435561, 0.9051916569384475, 0.323812168540516, -0.33321569863298706, -0.3674202739940129, 0.05882585249114669, 0.3832214832756482, 0.9794041624699501, 0.3263129941943035, -0.6736663604501025, 0.16352297825416517, -0.5565348808587571, -0.6529573199565246, -0.44712631178832485, -0.5302137522423283, -0.29715653967424505, -0.1512157828985039, -0.22159139165594466, -0.15039148579697503, -0.3847741469412047, 0.4386822228804643, -0.06990587564294781, -0.8253157497692309, 0.5423051456279966, 0.6990377998889592, 0.6853751648814486, 0.035324225456118796, 0.8123552098576043, -0.5957380973262141, 0.5769441403563156, 0.8803312878930503, -0.4113778005117825, 0.32938148250189014, 0.9204852773575918
-0.5222510370746671, -0.9336071605376177, -0.10203283311461497, 0.3390576410205588, -0.9085529277715749, -0.4822318827905625, -0.1950261155290205, 0.9604272540893617, 0.38197903056737115, 0.9704599150035484, 0.8894505107072863, 0.4630774768579293, 0.468214498315465, -0.6801137548376825, 0.4020328823603796, 0.8093365394734491, -0.969147362632294, 0.26764065600882114, -0.8852740087315634, -0.3481619362632906, 0.9996716102656515, 0.08497170217146532, 0.7102598398799809, -0.20972413832175674, -0.2635896489486096, 0.09971325811797804, 0.008188087078244255, 0.1705433354780186, -0.4227096166114368, 0.6712470146448135, -0.9550922869819138, 0.2862180368621221, -0.6121789061251612, 0.8509834948185029, -0.4665812020597504, -0.7216035024894643, 0.5512999607804345, 0.8468566027849946, 0.7794427361291341, 0.774393302149714, 0.5704507323646557, -0.28208888881179117, -0.17207217672776842, 0.38837135179785776, 0.9613199562419754, -0.43646478410155787, -0.5492290159459001, 0.6066552961343725, -0.08972084469767605, 0.8131235402209471, -0.5912385799368209, -0.31685482411184607, -0.9723199897845944, -0.08924528917850827, -0.36078354084208764, 0.29679191182028886, -0.5942922162253272, -0.5400889694668249, 0.9447038041996567, 0.5791494921564255, 0.3570424611610803, 0.10791848065294252, -0.2810038361500915, -0.3745676261966251, 0.3495408601447232, 0.5904934919921963, 0.6002980880372468, 0.8324537107766821, 0.34513653299010416, -0.83933464978979, -0.9650424152900916, 0.635880888953809, -0.8645728190597057, -0.046321722625512596, 0.10279317132472787
-0.7693922717643775, -0.5924943345391496, -0.21417252978331414, -0.6181611117320456, 0.3144452537324236, -0.7226682346065156, 0.06193853605499866, 0.5402501539382705, 0.10971636767678294, 0.745360512556001, -0.704355846408975, 0.023611420494892954, -0.9832418812751187, -0.11850596782425127, 0.19656513244569984, 0.6535547323077622, 0.12963911340380285, 0.6610807400494325, -0.8156723197375011, -0.12289364332122821, 0.9985984787896456, -0.9927080725551503, 0.9540603208669682, -0.08966241920331752, -0.9488488360400522, -0.546035461061058, -0.5525712912681828, -0.22947874479479013, 0.15216679183945825, 0.5019767746379951, -0.3613710380004087, -0.6478157668233004, 0.13717554243360963, -0.10232953868337358, 0.7371938798606488, -0.23818736036710586, 0.39749790471302093, -0.9690685713730471, -0.6193929895403842, -0.6755599726259729, 0.6791612653695185, -0.7680597576771517, 0.7618434828273966, -0.6412051153870086, -0.8843145941853794, -0.7115948127743974, 0.619372581492788, -0.7637097932625383, 0.15899378538904418, -0.6551190258382573, -0.3535425860767685, 0.7060617552855111, 0.2656445902531255, -0.7430831561722799, -0.9862457484671183, 0.899290042216002, 0.3884351881028385, 0.20966550005553453, 0.7046551568067976, 0.9849371304379901, 0.5244707828442396, 0.6902136555118803, -0.12114818522021276, -0.3196690329555123, -0.05799427631215037, 0.6442506294130697, -0.2822842735507738, -0.19583369859002175, -0.9186932525165501, -0.214836351549339, 0.8141714398463775, -0.9880956288519602, -0.7629408911767666, -0.3219548975038218, 0.3783614569833391
0.2999001152615022, 0.9601967157021747, -0.4288284577466892, -0.5980182880888791, -0.8195632869002796, 0.961655586474909, 0.7154260199619271, 0.3424867497018438, 0.12025570788407736, 0.3413947960391899, 0.9175748393367797, 0.12300081690623088, -0.5253371539998883, 0.9165414033300019, -0.27127681222072164, -0.1299408010318901, 0.17918530569032454, -0.11454998617587142, -0.9653706812853451, -0.5690607409272732, 0.9318689741225707, 0.8851247291526558, -0.7477810026465108, 0.8887620277307473, -0.2545112232691067, -0.14941721927090734, 0.007723736863315178, -0.49089820959222363, -0.23651084264094635, -0.24239176473425372, 0.5116295220736755, -0.6892567814706614, 0.8142709867134919, -0.9368951842777542, 0.9105267717006549, 0.26519474147945354, 0.9872042342371588, 0.25008726090766187, 0.2958159404917402, 0.6316039162046447, 0.39173502394003457, 0.9515878215376325, -0.7140861903861597, 0.5501392141447279, -0.5257642583398465, -0.9064645905682904, -0.9109682476326739, -0.6829301938117069, -0.17544000364470547, 0.7452174709104811, -0.5586029155253991, -0.5210482078791254, -0.44439889271356003, -0.45804423182075826, 0.8244838526427354, -0.577475880492972, 0.8666792376420354, -0.6463410949845501, 0.5911357477375283, -0.2688389462701397, -0.18118739226185365, -0.5376844271476653, 0.5152155329171424, 0.9716494143968135, -0.41268647601601804, 0.2660258016528214, -0.5487583122374837, -0.591077402609852, -0.08954275296126779, -0.058514780958011325, 0.41533678130710294, -0.4988018148125821, 0.965669645541892, -0.8570233192840293, -0.41655596767621894
0.49512074097387027, 0.015431750767769703, -0.45587194409624887, -0.5202996793854338, -0.5130881606012014, -0.7212073499302583, -0.30920999721418685, 0.5753840677303734, 0.7928122176944017, 0.4651521661689477, -0.77239912392207, 0.11301807395350716, 0.04236104173914779, -0.43120354057053145, 0.7188847229346078, -0.805697072222388, -0.9091954685078352, -0.5474855502456046, 0.0781597424856888, 0.601685165363961, -0.43462513447161477, -0.0870871678921259, -0.41486228408139025, 0.4851280452245845, -0.15015421041376653, 0.6478142740268034, -0.49618339695195024, 0.22135330621535898, -0.5464146377954351, 0.189886150955211, -0.1320307726531218, -0.9826924899790623, 0.4944927267679766, 0.5248419030793077, -0.24162814256886556, 0.2623574767819683, 0.11371166821028256, -0.6824185776190288, -0.7749069380549405, 0.516147127812852, 0.3286184502348348, 0.8539288995846879, -0.7818416685872944, -0.780754347618072, -0.7518827689385059, 0.4249655508582375, -0.1568062880156429, -0.8508234484439519, -0.947957636451568, -0.14730275368399814, 0.20420144655162442, 0.383212154771289, -0.435635236021624, -0.7366648088044281, -0.9139191186498654, 0.57122609361886, 0.9429886887479353, 0.10773771665282261, -0.30776162642363003, -0.8036516192932197, -0.5731021248574857, 0.7322780957846553, -0.69875078129918, 0.9297473544341974, -0.25286828151444674, 0.3884637589601345, -0.07949123179285467, -0.05691653782374839, 0.5134675026511881, -0.6303139716683934, 0.35313636423767436, 0.512920204336555, -0.4920680098327903, 0.3943229195350706, -0.21010670961722866
-0.6770019547929977, 0.14855667884340917, 0.5849815464640877, 0.3885035294555945, -0.07286881099994025, 0.8065488638052627, -0.5191055125415867, 0.5679528881002853, -0.9755113216912403, 0.8365302388695888, -0.5297880581399834, 0.3349183778135867, -0.36362247958493965, 0.1101413869297736, 0.2972088990766508, -0.6283092428915298, 0.700855568213322, -0.8965318248657401, -0.6271879717680111, -0.9917914536387253, -0.1892272741978549, -0.2923516664901653, 0.8725666579667282, 0.4175605777072837, -0.45206043415173536, 0.733655257821082, 0.4278135719082159, 0.7472676528148101, 0.0627848817295904, -0.045485581195274793, 0.7495591254505332, -0.9868143457705196, -0.6753511505089, 0.7819845193517261, 0.32832012284786005, 0.6506887947601752, 0.5822505241110605, -0.8521265879848756, -0.06880290866069894, 0.7984794414672183, 0.5541425570100995, -0.08509008050391254, 0.9381049386226357, -0.5105586762717298, -0.33804665314048776, 0.5389439304154848, 0.5408924422126908, -0.6570868099679581, 0.5609701062305104, -0.7081304104548325, -0.11370001370932492, 0.5433164999229176, 0.9201248299791414, -0.03841250078188585, -0.012517228058747776, -0.21014466843415303, 0.7505309539166012, -0.22283294196347114, -0.2311823656653429, -0.009636759908739023, 0.4557930594156434, -0.024109668582942945, -0.926563307786056, 0.75675143797217, 0.18291246781422865, -0.16315362168319236, 0.6572726148500676, -0.07421379374778336, 0.7469245169586776, 0.41112997896809, -0.33741992731107384, -0.27122074636157834, 0.9809481986175999, 0.690396659635272, 0.18936770961043292
-0.28435013073039306, 0.03908473872982654, 0.23516231823105205, -0.44415727608200806, 0.7253491933380007, -0.27235155658040444, 0.6496194180702131, -0.03704572722384203, -0.6646026349236767, -0.6069795155124362, 0.44918623740819674, -0.537579134105509, -0.5322728813032644, -0.4689344734976415, -0.4641444117829461, 0.00861681109117729, -0.7080493263695145, -0.7389773082191495, 0.17327003043153955, -0.5646696399125175, -0.9741755399328671, -0.031185559037708366, -0.8570579467051305, -0.5743695868194174, 0.431373494705658, -0.8812762363881177, -0.9002960428836486, -0.692450966058292, 0.20490066860258338, -0.2722106275049545, -0.6495943257744883, 0.14067957173331713, -0.40054084139201906, -0.5970673736519716, 0.7221464247238156, -0.2093323368719915, 0.9463394288692424, -0.9535852429485976, 0.02567803822002368, 0.4053955575136974, -0.4431206063213722, -0.05689989395554784, 0.929456898041245, -0.03378177631113788, -0.5223789955796057, 0.6111010394198901, 0.4854470018525676, -0.4598490696217006, 0.0017737105769350947, -0.9668715585563108, -0.6333065825452007, -0.14995496896129312, 0.11731286081230907, -0.7655036470029422, 0.9719708984998792, 0.45939024598667677, 0.49110888733507174, -0.6793012198859114, 0.6168518896639195, -0.06038007164653303, 0.43056774295457645, 0.699612161920137, 0.4591784070592122, -0.5860144275067594, 0.8308917026799754, -0.5714395265215892, 0.5546877640366201, 0.7557864351218639, -0.45768347118000197, -0.9888487712231422, -0.6842557374123528, -0.403409863494093, -0.01048872375710408, 0.3918732412771617, -0.4386817111170518
-0.3511613244299996, -0.7813966132840418, 0.8922495197149423, 0.4675107766855868, 0.8505636800445906, 0.347032781121408, -0.09904284412043785, -0.38417349466158557, -0.9195691228346696, -0.29166314173923125, -0.9373163348957982, -0.8601919978032222, 0.6387426332853936, -0.21956047065585782, -0.41987682096805434, -0.2898534655031346, 0.511954740740733, 0.9522536718379797, 0.40161694125337233, 0.18385240157296323, -0.44712653556493054, -0.11670026158605351, 0.005794696009659539, 0.37445983137926087, -0.009177370458972156, -0.12854153037707938, -0.7488417164521333, -0.9028636778208714, 0.9885451372381535, 0.6986620831736476, -0.05901804604427907, -0.10571817736362954, -0.18705740380643832, -0.5700139576198624, -0.6508861895103175, 0.505549158041771, -0.7647562157141219, -0.7118291908007714, -0.8235110822948113, 0.9490961535414755, 0.1367582068122455, 0.7337574260937791, -0.03320283473775065, 0.24221735556569213, 0.9822089909341174, 0.9967500243084841, -0.8109743351907346, -0.7266328881023965, 0.8393351599917116, 0.26981816730366903, 0.18263837557842155, 0.4722658485224067, 0.4900640451013789, -0.7466950093909874, -0.12474681542466026, 0.2024225681555567, 0.8868496645174937, -0.193825230598212, 0.6430595563560342, -0.09550123780449038, -0.597292764101852, -0.49439740089743367, -0.9678422295183928, 0.7707416173566903, -0.6175313384196754, -0.21362669118169242, 0.8048998595532675, 0.9854027009604507, -0.5595302271903302, 0.5615210548256124, -0.004176735143564425, 0.26565011194564425, 0.17617840377263505, 0.072828469680561, 0.0028306539306313105
-0.8845498489330494, -0.5709396075075257, 0.6460127631324708, -0.3858674366476875, 0.935383420035639, -0.44136309751609115, -0.5900343616873989, -0.8962239039243234, -0.6721474968134191, -0.5968220018371735, 0.4268483340810918, 0.30927804362567457, -0.8068919093226481, -0.8711119449051155, 0.5316628932673764, -0.6144416582121295, -0.042592391516082184, 0.6042987169207685, -0.46533752630616965, 0.3298578588836012, -0.5857889993796581, 0.1810796335985918, -0.47994378142127925, -0.9511409215710285, -0.15540071502700892, -0.5055796307723255, 0.8444799774051166, -0.003366309396013012, 0.20046211237305878, 0.29283935135298034, 0.40858424512816427, 0.8098699959169662, 0.40831134435596494, -0.4756140550983923, -0.8845601141424648, 0.7899524353147229, 0.7765159688388987, -0.548473298831905, -0.8193519584007638, 0.6070782871700442, -0.9332933853056802, 0.853233374698116, -0.20438206157390848, 0.07517218729283881, 0.08271775289895489, -0.9152574447740354, -0.26361420931418067, -0.7564377079684537, -0.9050959820992972, 0.47732727049826185, 0.7720869369194618, 0.7898868870165261, 0.20577159302057435, 0.7610849422880923, 0.5458995689321973, -0.7696642336067576, 0.8440578473449585, -0.4198916599226563, -0.8313201182828993, 0.5651945095153907, -0.9258601082954239, -0.465431665848151, 0.5813349554987304, -0.09616470550446454, 0.8084758209499614, 0.2798367059914346, -0.3047136996662436, -0.3047510051873905, -0.9224779513353742, -0.08270284117310833, -0.018747090259068955, -0.4446646423113707, -0.222282565196402, -0.7341740069696181, 0.5092140442262325
0.6526022410378514, 0.11338868378551892, 0.766585289575751, 0.5988954605577339, -0.7816078166807015, 0.2470164976640783, 0.13534380981870342, 0.0015841862155081543, 0.2635933615838262, 0.5240864479995837, -0.014925214698650269, 0.9917545951398647, 0.3512089662948008, -0.14080566168002617, -0.5038793100429864, -0.0024084618352033793, -0.6057537921897556, -0.5787907911664458, -0.9035038838429479, 0.894491623903344, -0.44319040199215687, -0.9148007036540227, -0.1386804248983169, -0.20763897737078763, 0.7534904285637953, -0.5604630137215154, -0.5446179188094011, 0.18820443200954884, 0.5055325952561591, 0.9803117866127997, -0.8869301791178659, 0.2820831156313375, -0.5366984445736742, 0.38027386365371907, 0.39177804604757416, 0.9595107960927676, 0.2159130157373621, 0.5910770100106162, 0.651291015873678, 0.11601128259123339, -0.07100315817836256, 0.17885480712313928, -0.44904311883019155, -0.8957991923983282, 0.42179632017719193, 0.3825519162790294, -0.7821066091639541, -0.8930784103164497, 0.9692458904910595, -0.14843892582356455, 0.021814782747779926, -0.006894691689869337, -0.7605583933664701, 0.5216085049186101, 0.7040352881874488, -0.6957342045647095, -0.5767655868437545, -0.07642474126948784, 0.8498131454605309, -0.11349894522011539, -0.3471358286362287, -0.1320854891161547, -0.1652664333876439, 0.5053903511724975, 0.3753457315148703, 0.03669046241532392, 0.10677521776149224, -0.5167591080449889, 0.20174554887690688, 0.8652575712496078, 0.14834496931420516, -0.5827478679545957, 0.5195725905559003, 0.7048449943030413, -0.8033146843446421
0.7730525562450076, -0.5741424943015551, 0.21340121290837682, -0.603816298350954, -0.2650940417659246, 0.9478041409158424, 0.22053659579401386, 0.9969929748942962, -0.3796543095672731, 0.2648664397317078, 0.16257656461442357, -0.003117905504767034, -0.12525515449304817, 0.15547336058780994, -0.4319245978503838, -0.35270312829586026, -0.02022446225999542, -0.11621219889500968, -0.02687674984537972, 0.6642162518514092, -0.5668378176148018, -0.578978263651738, 0.48957890950735355, 0.7322827871098967, 0.37707880272407807, -0.03776403675800651, -0.3580510873232795, 0.8117432816357681, -0.49937629685897666, 0.3744600405808877, 0.4485761285830072, -0.12232983880330861, 0.6746162020658346, 0.4210821086885794, -0.7877925590238645, -0.5120063298515874, -0.24382172113947292, -0.31848786003327423, 0.9464706681206606, -0.21412212544074274, -0.4001086050857806, -0.4013055152539844, -0.6526712260500502, -0.8115669442891357, 0.16470786766829087, 0.5514861605261159, -0.16252177058202688, -0.34018819651145493, -0.6852606802021615, -0.10423205102336197, 0.22279620431264097, -0.038210417346928115, 0.7383192285501874, 0.017553677180859685, -0.12441051424785877, -0.7369623502426832, 0.35578161611335785, 0.7550596544620799, 0.2954101484215562, 0.16429569560145554, -0.684505126804028, -0.2570564898331771, 0.1434834473788584, 0.4768659454169085, -0.2628837867116237, 0.3020213909153219, -0.17765882424811505, 0.4663358965748062, 0.005634458592579424, 0.0856392377531739, 0.686862684053969, -0.5670066665497052, 0.06165735900671551, 0.14714770155261947, 0.7850077684150416
0.9314366593897572, -0.7874517361972067, 0.5668092113950727, 0.43498096250143403, -0.7450899188384668, -0.22052718253655623, -0.32675908013418375, 0.29612244670823884, -0.43035132146241484, 0.9954593352964718, 0.18398717050773294, -0.1833906170166104, -0.9750621353919922, 0.21456311713509635, -0.7083256867981991, -0.8417871795706047, 0.12458294528019342, 0.7035112993285297, 0.836667000233096, -0.31996431382049906, -0.42760921516753214, -0.9676649324358078, 0.4752621517502935, -0.17827229029742675, 0.6021509402494098, -0.3487410625631595, -0.5416515722013511, -0.5264581791553127, 0.9683675159576381, 0.07523114868395231, -0.46938343185552567, 0.05313904260113578, -0.5162489481242045, 0.9925223031765777, -0.22969827012213617, -0.30117302678762936, 0.06601517237556154, 0.9114718788021321, 0.08379077015585157, 0.022073265870168335, -0.3317522128207213, -0.4830058613193584, -0.606242144700984, 0.35994073594618126, -0.35799102638989, -0.2771457128917034, -0.09977162110753035, 0.787439535801552, -0.9905360725018468, 0.09751329713592671, 0.6671820508025204, -0.963992031732511, -0.24723346377459787, -0.7049652924658982, -0.6136978967863373, -0.7683710967252728, -0.9998507082321058, -0.5353128548297148, 0.46038949635176074, 0.12797953370760995, 0.7422871492344663, 0.09548825337770639, 0.4929115587588915, -0.1531507081422867, -0.1559787397464203, -0.9149041077725717, -0.17711518730735065, 0.7314867359284092, -0.7687509866196582, -0.8528132858349187, 0.9254784520909229, -0.8920896263393288, 0.2779072152483373, 0.5887468802909357, 0.18693375507151888
-0.041664326461855694, -0.9645920006459101, 0.6445831476123347, 0.8323274222214501, -0.6930021948512728, -0.4637671621708006, -0.8031436252846871, -0.26473784116050814, -0.9364890315972629, -0.27897762277849036, -0.3424015042572157, 0.5380682467699907, -0.18412209244803357, 0.6268492904966196, -0.189146548886574, 0.9144910005589129, 0.6517696816863374, 0.0929327694587907, 0.4587099275055011, 0.8491906801951701, 0.5752476748488458, 0.2713059258304211, 0.6954759826148651, 0.48277110462436257, -0.4479655899084367, 0.3607974846836548, 0.4228366302285482, -0.9153880897010538, -0.7321518375407869, -0.5575172749846122, 0.5532052183007159, 0.6219399440740143, 0.7039610923373925, 0.32625358948451266, -0.1428169921205562, -0.4208799466924735, 0.14041679201741264, -0.5339238937532049, 0.6142431244320115, 0.6720238059770036, 0.5986074991679309, 0.26007788984131075, -0.7098893439706653, -0.565754007557207, 0.26582495932785477, -0.0930311963744952, -0.31023012254794, -0.21983902202313077, -0.05187004544679308, -0.261230405361633, 0.7169818841295807, 0.6580189032819601, 0.11793720806394337, -0.7329090898228561, 0.5988455727282322, -0.40847786783535867, 0.7470417847483279, -0.6352809122519054, -0.04679309278852983, 0.27020715757586444, -0.8600192577650172, 0.19911316968531256, 0.5309150921063295, -0.2262551248870217, 0.8666685354609469, -0.47158174376955175, -0.6491562112717206, -0.18109106309766476, -0.43633889024069017, -0.6720757400127808, 0.17722844280153538, 0.5090905413952744, 0.6221055017359705, 0.820112919848575, 0.5924691972842124
-0.0962452138724208, -0.8143635543727896, -0.4796418780752916, -0.7547106051480168, -0.05039426270291747, 0.971396695156586, 0.049201739460313476, -0.20567771819010128, 0.5491280906490132, 0.1931889610121651, -0.6646670213681101, 0.2652433101520386, 0.5436213747977083, -0.7279977139884553, -0.8295698290846993, 0.3193038998823541, 0.057325417497764874, -0.46006812659867835, -0.4636968309642868, -0.8804228166421946, 0.646761083171211, -0.27603375801895647, 0.11991310234195485, -0.7835388702545276, 0.8681186399895617, -0.4581650030418358, -0.5418618760293796, -0.051770919347494004, 0.9800049649028848, 0.8221922936591781, -0.7015385157478158, 0.41432463566374267, -0.20573998375975888, -0.7349903720554964, 0.659973517277578, 0.8111338785477087, -0.547277440913732, 0.8327012552925801, -0.6763439233954784, 0.6239094847273696, -0.5969832342536114, -0.538681559940243, 0.9449345920363541, 0.932738829973399, -0.3151909483432749, 0.07709125532117822, 0.25838625376970015, -0.606702064529844, -0.8163672641227833, 0.29993880139464313, -0.134210378661757, -0.4679902673857743, 0.4836033798509187, 0.21211657193106426, 0.1835941534955876, -0.8384902253347111, -0.23636296151831004, 0.07466983479566514, 0.1331118282165411, 0.7815625635456707, -0.6060489942930585, 0.8725102485941565, -0.8633182526238881, -0.5179188815962874, 0.3290239636244148, 0.7757319108451042, 0.23908206056607417, 0.8462237282661058, -0.8600083858465686, -0.45253808208543456, -0.7363013773837079, -0.9447363906036776, 0.8722912757263876, 0.6996045571033465, 0.9616853717707738
0.8194744088131798, -0.8710751501035108, -0.9869246540762004, -0.5276805932223678, -0.9651913105771084, 0.8976356488631114, -0.5923073862282555, -0.1727832116571033, 0.9738580299680191, -0.4625912145244069, 0.8969674805453893, -0.04068665504553959, 0.00758100393154848, -0.1433855075470718, 0.4631617870962419, 0.31074605991131277, 0.9605564833542801, -0.7605337467248456, 0.40044983390847877, -0.10612919968421464, 0.9976075278621277, 0.9075022879499084, 0.5793752089971487, 0.43145764734028536, -0.8172601661979559, -0.38288070388230455, -0.5388416325482828, 0.2972213811648925, 0.8052283470663499, -0.18105312270379148, 0.9550727512593893, -0.33962422011276105, 0.11104944400145778, 0.4733034131521445, 0.9707095165641477, -0.8709842410509108, 0.7185898341452512, 0.39013969389332726, -0.6052631507179598, 0.15490581155270622, -0.4850423627095517, -0.6518502247869398, 0.3910281355166658, -0.07831933033252003, -0.8080489939123057, 0.4437214933698703, -0.9744921595792659, -0.04527383881167202, 0.6045428999576221, -0.8747948041882947, 0.4819189019362158, 0.8796540174586736, -0.13252016692890445, -0.43657688092428515, 0.48888983718747525, -0.344326580522893, 0.0037895264201783796, -0.06731852428030738, -0.3749043281853912, -0.3692853977832722, -0.41488211381772766, -0.3252381570603018, 0.20220268271244324, -0.8103371039254661, -0.8046401509533716, 0.8091315988815202, -0.5534928369187355, -0.9069078365695771, 0.7997207237074648, -0.005639893060877199, 0.6579008821148946, 0.708843337175904, 0.16488924211592204, -0.2399580041769913, 0.8636210214799775
0.26620439981559096, 0.02173466823949699, 0.440373324341532, -0.6527008797192213, -0.7432072861531025, -0.5068976397482534, -0.27095907687057696, -0.9823803007106866, -0.00648757793829402, 0.6798974670706666, 0.3698053429546806, -0.04862928242958242, -0.394183252849865, -0.4025567842582243, 0.190703058246386, -0.5677769451774828, 0.8457742365786185, -0.12006481393252066, 0.2013258981992534, 0.7763412094060675, 0.8068124334084574, -0.5630521290316115, 0.9156501643452555, 0.33089003759627156, 0.9903053358898468, -0.3141283958019603, -0.302577271775502, -0.8194181680927315, 0.5279871353899619, -0.8598836014011111, 0.5156426583225415, 0.2930365711711218, -0.0011524927371757698, 0.6330230341939109, 0.047230043300020785, 0.8483738262254485, 0.7492660782150895, -0.29623498637895906, -0.027413612642751772, 0.5204705940253938, 0.4072358708486292, -0.36682387468555255, 0.025639390936476936, -0.36712157423044545, -0.8706548784247237, 0.30883023705916246, -0.3136258415666173, 0.35733499659933754, -0.03014292621924053, 0.6769688196941832, 0.5347245772832623, -0.007938284263768303, 0.7709797249592882, 0.622325975435968, -0.8233093660281154, 0.6099889493848192, 0.3783994697982247, -0.39416236806091076, 0.14176402965083712, 0.6951406070273443, 0.19325776620647384, -0.02864498265430182, 0.7783594199310886, -0.030567672212776564, -0.00006559464046373975, -0.7828895820938748, -0.43976995022166454, 0.04293509666268713, 0.7131283521187086, -0.08475299633640576, -0.675040595258789, -0.4230603972407163, -0.7099410841402176, 0.00012801307288201613, -0.6575001338940614
0.4547729658858799, 0.24851514229558758, -0.6078591125227777, 0.1765013294397404, 0.8769915894632234, 0.2426679077082734, 0.9422828180920808, 0.6462649602179944, 0.7100882388196013, 0.9806883240664983, 0.22522252399038134, 0.17525099892205231, 0.4562513091258964, -0.10684457574799788, 0.4857476857433367, 0.6485498244795802, -0.704213312873593, -0.9904604033542324, -0.50783894014624, -0.04684751687709765, -0.3089160653377281, -0.9100393858158813, -0.7369967826067034, 0.4235753082844065, 0.9240542369462186, 0.5650729016804363, 0.47455513726529697, 0.26498909760775113, -0.7452825924281923, 0.05684185607022707, -0.19222098521614983, 0.8943970374248185, 0.39425734375838806, -0.15552039807033546, 0.6330409193469269, 0.5610488604314701, 0.5322563272447014, -0.1449423535674006, -0.4849236228176377, 0.06956020415165165, 0.2711103965794863, 0.003712812603620552, 0.01885595977309862, 0.9412691541218519, -0.33690305152322475, -0.7229779810331975, 0.9006840035892698, -0.563108466738186, -0.1329928241906404, -0.45546385958220714, -0.017820754141859574, -0.2934240377713837, 0.6900107856901965, -0.3789203638567429, -0.7668732302459071, -0.8075815941790085, -0.07770265314354896, 0.9153150576375997, -0.5451043312256014, 0.4515000496527528, 0.12180305682605752, 0.20218460237371438, 0.8564789256452578, -0.4929186807420529, -0.17191940106638093, -0.5887431821810583, -0.15428252415294086, 0.6852129840455512, -0.48986411586140477, 0.18899537509568054, -0.9405937503040209, -0.00040700999133935767, 0.27373906539986415, 0.19032293991640836, 0.3435989773659225
-0.11125296130963402, 0.863895703737239, 0.348185349049531, 0.4362354183826196, -0.4291283317524144, -0.7727971339469097, -0.8354689469202601, 0.3454319575565705, 0.08191757208392536, 0.8033427601645777, -0.6130224790835372, -0.7470905864441386, -0.3811208318210073, -0.48785419864744517, -0.4342660244312935, -0.3483680835463687, -0.39115444669734245, -0.9546792252982716, -0.12920471342782847, -0.24060343621762348, 0.33664480347570924, -0.9355142690266991, -0.9561885233927092, 0.002226007703871158, 0.42928652757090857, 0.13603828497805548, 0.3969882620127603, 0.12191430864828012, -0.759268489105275, -0.6729219624855776, 0.8825795128568243, 0.643003712788218, -0.6299226154404081, -0.6880200253879818, 0.4523817760342381, -0.3648155189415778, 0.9447536620131216, -0.010116376838184227, -0.4543979730834278, 0.2568084259903105, -0.7342393928653967, -0.14953424220166767, -0.4286532327760546, 0.05369010859670409, 0.6621103540486875, 0.610971596248894, -0.6028227432293525, -0.5239170192987421, -0.5852753564712327, 0.01953328717329006, 0.86800368927388, -0.8154007250180424, 0.29001673836848774, 0.6718624599760963, 0.41099089801610544, -0.8186749310067514, 0.8262363173298031, -0.770677831323511, 0.6324265342384665, 0.833987034308949, -0.31930388782942076, -0.8399234622624032, -0.39733694636245476, -0.6603821645193326, -0.8338843703968846, 0.15265910112640668, 0.39756159872235575, -0.5508572831002483, 0.6244977157948748, 0.4641714822338847, -0.5382115099431122, -0.9301363150477595, -0.08942454363914099, -0.8594421320557704, -0.7009724944699314
0.6675839152021052, -0.704591312466146, 0.49290521412121713, -0.5928693574210064, 0.1814992690352204, 0.996915665212248, -0.5024990224643453, -0.4529510678798796, 0.21485969626187718, 0.6138978182040664, 0.2279874759048366, 0.04009815175692033, -0.8890533240162002, -0.7678898361923086, 0.8886039939055101, -0.3111380492067486, -0.3878028618153828, -0.7019443061785418, -0.3091921358478378, -0.9041727911135835, -0.21726675322581546, 0.7524331884743232, 0.6263132880719104, 0.013329909941160789, -0.19685549352068277, -0.09034834514478218, 0.14249479828610845, -0.6137438201018526, -0.7255090471034293, -0.6657418677545484, -0.056507005188544124, 0.37907096979990174, 0.8369305463344774, -0.7138911492840441, -0.7136619285688153, 0.25233474416402357, 0.8225999899461565, 0.9454659670712751, 0.5109304945574422, 0.37643469152754694, 0.9821125389891723, 0.937416488682111, -0.486279417262212, 0.5157452712280701, -0.07706261623789246, -0.5221661245130336, -0.6869658500845093, -0.6663498286609522, -0.42844479200645313, 0.531326926891786, -0.23392464300294158, 0.8673122609325374, 0.19177486517045628, 0.24136088176170079, -0.9686341263179243, 0.3438981090574029, -0.9063404463439184, -0.5036872397224972, -0.9203819648434686, -0.06975215426963555, 0.3820817002943486, 0.947914658752647, 0.7992688864000619, 0.7717585543423611, 0.4410931439604955, -0.39964816868723796, -0.8105287729521709, 0.15417284438089762, -0.8284948784535588, -0.02854729251427024, 0.3449656418981637, -0.5054054416762357, -0.4475324546292221, 0.5255131076469568, 0.2465942151735323
0.6357501872845441, -0.6689228074947287, -0.3186581915116591, -0.7148315492764166, -0.08940157469446053, -0.632804513856378, 0.9203898145398073, 0.1279936532278385, 0.00871560414419914, 0.4086321938722297, -0.9534718537211067, 0.9905534530426139, -0.09520494105901944, -0.0011723164790713447, 0.17589631168092756, -0.9790044017504509, 0.9095054569437506, 0.7381644628221706, 0.08119621914452901, -0.1394032890068888, -0.8069989709452878, -0.19856284555480563, 0.7969531045657714, -0.9864355314792537, 0.5538471055731642, 0.05994182913949464, 0.023318949811820033, -0.8723385138181694, -0.7128341883263323, 0.3143826990099714, -0.044955262205662816, 0.7011294474273746, 0.8469258098929595, 0.3194536242710537, 0.2825879758465537, -0.2835485120426129, 0.22677287701620852, 0.04899484009137556, 0.8959653171964712, 0.10182451632552025, 0.45229238854836273, 0.7605328165995435, 0.04944512146744229, 0.590251129588053, -0.7689556327692828, -0.02119024532183822, 0.1308598370353078, 0.6340029804808318, -0.5424176496846989, -0.7552082642208022, -0.2453424284473238, 0.09381054695426583, 0.027884109908538957, -0.3692280359776645, 0.15206700596197287, 0.36212788295815024, 0.850775198818031, 0.9167720599978031, -0.39423410201819564, 0.7218423827598235, -0.022351521244822425, 0.3907547176452444, 0.22461112207288458, -0.7916559684695463, -0.8079539248729084, -0.011188867797746305, 0.5475489199872867, -0.49044874879409717, -0.9205487889257093, 0.5356413271376281, 0.01461322556929101, 0.09495992349813198, -0.028848780581637534, -0.7198067123966188, 0.2682931402403521
0.8654991232428757, 0.06900924843894307, 0.7581197089449097, 0.36651057676772103, 0.8634091926790872, 0.8375357793179257, 0.2240394587761294, -0.3912774972135087, -0.7798808092066962, 0.056156597064850544, -0.7675436671213083, 0.09823682008678158, 0.9420240910488, 0.7505012937742763, -0.10230102167561039, -0.5534883329505109, -0.6606253677163827, -0.9356620065669787, -0.9936673310474893, 0.2887381725263838, 0.06461386056542207, 0.1886314643383864, 0.9630243583969635, 0.4213528247187326, 0.3505754195685249, -0.17698945066831273, -0.024818724643175027, -0.5620219283538708, 0.35047814995508864, 0.9273181877862702, 0.24029583173986513, 0.9315473132759622, -0.8682142560115196, -0.862240323561255, -0.32829419847182306, -0.4504115562862201, 0.04467048317502886, 0.6134867793078467, -0.6858126194927032, -0.8738198367966792, 0.905353497667913, -0.7233749025755554, 0.8389826378890484, 0.19370062719442283, -0.6867810825376415, -0.3780071742310507, 0.18513081988415747, 0.9874606489114566, 0.047936186156912086, 0.3597471325622936, 0.3243275896436626, -0.4871095957577185, 0.150744553124603, 0.012564021592532004, 0.5546013900786688, 0.6098655550401815, -0.43857829911814283, 0.11924126902426258, 0.8521767012266954, 0.3470308317223001, 0.4264945908539439, -0.14864505266493522, 0.37394176954448355, -0.20348461827883657, 0.18557080432140172, -0.33917769172209233, -0.5615978284878662, 0.5837334750674148, 0.5211990327683185, -0.16033020291374322, -0.6036950094034892, 0.8647140780760258, -0.17028290952781333, -0.9327489025846876, -0.8712591055477539
0.8994622041960318, -0.6732128164171742, -0.6328919045310664, -0.7781078561102701, -0.821922983680667, -0.8620781646654181, -0.25527588255028677, -0.8633152548765208, -0.46834610949407773, 0.615738298407325, -0.3598358974081779, 0.17228270431753945, 0.46209013168161306, 0.36254990403732723, 0.23086584429535684, -0.7120818875279737, -0.8245240010942219, -0.9757115377996648, 0.8372170909132484, -0.12253294104203105, 0.4999885899263621, -0.18292244595454887, -0.9192931975751852, 0.20534943839340336, -0.30592542067691486, -0.4581252264186704, 0.9294595527017235, -0.33838846623497476, 0.3990652721983423, 0.08723149873970826, -0.8293888141324914, -0.8731073003628627, -0.11203087470344508, 0.768448952389976, -0.7878171122976139, 0.11374603955119156, 0.5517783938233216, 0.3922252600163687, 0.1362828965259122, -0.799094860490928, 0.4419682476031386, -0.35346032316477816, -0.08609256273036436, -0.28506267283172626, 0.5263531023170698, 0.7504208711115092, 0.4085386604178769, -0.9472142881470447, 0.151657136049963, 0.19418813050759853, -0.8731951457101337, -0.8566819180542864, -0.03579915218158547, 0.8434957291658272, 0.729801489008183, -0.5265791322868134, 0.7821750696059047, -0.9723756657403468, 0.5234115472129051, -0.9928367718937503, -0.5453677250602995, -0.14292947255404842, -0.09249922290551993, -0.6960241203628037, -0.2992229355025522, -0.22819921600648874, -0.1188108216024788, -0.25651757682875376, -0.02318064597470082, -0.7847520767857752, -0.8300148367144766, -0.9501693172498786, 0.10240450382602395, -0.9786013273761451, -0.79884825078729
-0.8620033164787109, 0.8030776817960956, 0.06286871380394699, -0.19017099455450026, -0.44783671848812734, -0.7352132789031343, 0.25907606480389855, -0.5399077589031167, -0.5789607333354883, 0.6843249430790204, -0.4450827488158402, 0.3255270060431714, 0.2060278551150625, 0.4781187910381042, -0.7471122674639563, 0.8236573822852513, -0.2157090480287267, 0.901083825479188, 0.14409566416318897, -0.6622401977782202, 0.10619383013389472, -0.7794755151625883, 0.7112742165578445, -0.03809816000706423, 0.5827861824527241, -0.3419924026860235, -0.1791582184952789, 0.5146265001661918, 0.4949062090284202, 0.2178928604317809, -0.583019001506504, 0.96915610385375, 0.8111257986181539, 0.821687447790151, 0.8238079119157411, 0.948145840270473, -0.36340659732487124, 0.8374190955361733, -0.9986730270309407, -0.35455042727123454, -0.9282590489763725, -0.9443830580621491, 0.22584499683853476, -0.5172773243407529, -0.5520268450823984, -0.5325362092874535, -0.29875246132521216, 0.8467341796143839, 0.3367107200710886, -0.45859193596560477, -0.7654731419715279, -0.6903415947056897, 0.32914795310175116, 0.6275468746328774, 0.9373036749143115, -0.8262750640627679, 0.9514386877918022, 0.8169875213911211, 0.46819821997749456, 0.9220670810628562, -0.3201086270376994, -0.37204839161128644, -0.58107824346689, 0.5538682072459578, -0.671269929583231, 0.2980793219247184, -0.05666972273353155, 0.6528973700850171, 0.10883954797120188, 0.8841356479939018, 0.6781086121093565, -0.2236320334230122, 0.027397683057123867, -0.4059770881094109, 0.3036399868615005
0.3029731028472371, 0.8650851087928357, 0.4024202786328699, 0.7312635189291483, -0.7581371209312073, -0.174000819368743, -0.7304543649687414, -0.3290722082784283, 0.17261740702416173, -0.160648665772535, 0.35651309866001046, -0.45401775540367284, 0.20203982443677315, 0.6514704370557034, -0.721756121950289, -0.20157060884031974, -0.06452555761616008, 0.5119647532966409, -0.2647145016521617, -0.6173728262784701, 0.4053830774777265, 0.2561560010781676, -0.982968076116828, -0.34841588477031626, 0.5322693383231409, -0.9185765710057616, 0.13323172857292942, 0.09436371127219756, -0.8581178046857172, -0.10026814314538601, -0.7609361413822224, -0.7759333987567474, 0.11609162103383275, -0.5154920402339411, 0.1474495251011998, -0.26911784584026055, -0.929369741730091, 0.48037121629394575, -0.8418858942607836, -0.43108203860262595, -0.4137215391807163, -0.9538085403001717, -0.25692485086791184, -0.12791652480951887, -0.018458532990641707, 0.1905163623217585, -0.9834332690830863, -0.36172704789105925, -0.08564563966661165, -0.034001261815445716, -0.32805982913696097, -0.31494892199344493, -0.7739112103678178, 0.6266476171236137, 0.1764510518990492, -0.6119881951801447, -0.10519699220059842, -0.10542721893664497, -0.49726957053367027, -0.08282630914688038, 0.7732698542752292, -0.9547573157261136, -0.04689607135062834, 0.6956054319031653, 0.5763224150956732, -0.26180808368216457, -0.6814287309561142, -0.19904325879871632, 0.22899361238796345, -0.13763151536108742, -0.3739937217424334, 0.16996065854510833, -0.45219266042358086, 0.8047175899823422, 0.21783524284603084
-0.11800621819599666, -0.2436817774711404, -0.9035355779819949, 0.7792896173489008, 0.42283114229238583, 0.3312339780582456, -0.48020640113785085, 0.7454784433608279, -0.6121435945159521, -0.7041173474222293, 0.5886456660320398, 0.9051940714519926, 0.5463055555198943, -0.661703774884423, -0.6235382868342234, -0.19577491509524858, -0.2726225743330968, -0.027679853495818918, -0.609233361279677, 0.2786176035652126, 0.010188118440185079, -0.45693411733608436, 0.7660069826599853, 0.02217057845526238, -0.6502990013913061, 0.6922362954868677, 0.9903073409593115, -0.31422342209130205, -0.1657274330035552, 0.021903693455278983, 0.4740956618173078, 0.2328216169828683, 0.9559971943826722, -0.29334706265698474, 0.010201008421340862, 0.6573376796371746, 0.1447770073055965, 0.1929821652307928, 0.40286868220790195, -0.1328336541853905, 0.6715693553994591, 0.7618788132088183, -0.21177188998103702, -0.7476254355420346, -0.16713018883365427, -0.6825710810114369, 0.9062546996683363, 0.5574972890239271, -0.09770292031197059, 0.916202129229251, 0.19099667509253626, 0.9986709532124269, 0.07953189083782997, 0.6407121792164419, -0.3352014895465252, -0.35357503067445784, 0.6556996892173834, -0.5636654584288019, -0.693707761351571, 0.744516327631985, -0.0063503912267735, 0.24439126175913017, -0.4639893425762671, 0.6704473625963603, -0.5896581059328905, -0.4878648213526633, 0.007361879552965966, -0.9387782153975803, -0.2505481608334854, 0.5210031518072782, 0.7675269836333722, 0.3340286112472004, -0.17922589002355993, -0.06046063122309642, -0.10591044720608123
0.9801809706468894, -0.0017530461121042507, -0.95261985104232, -0.5953196789098545, -0.05328099714072376, 0.39569186444220694, -0.4176291217906183, 0.5906432156604149, -0.7100716493549077, 0.0951133693259667, -0.6934274304171288, 0.12652664923817492, 0.03923635374727974, -0.5040375792448661, -0.5594543198910742, 0.14565815565791196, -0.5569931096869385, 0.9757710313091881, -0.8511512657879594, 0.040784696886250416, -0.3824298742917174, -0.4508384349812866, 0.15206923540019313, -0.1222136864424237, -0.7403026203901613, -0.5313273867511636, 0.9261236007280313, 0.41173517123973324, 0.026086748979275765, 0.0664567345695537, -0.09235394002888908, 0.4766843930687128, 0.2338906124860558, -0.8956667951678674, 0.7138770332492212, 0.8601823375812438, 0.4491535537231566, -0.6160465718608035, -0.17917874336012307, 0.3791813633757619, 0.0999277432698924, -0.9697822932016749, 0.29475812118708733, -0.6145099185400782, -0.08645179866856623, 0.013848010907162589, 0.6882651273173312, -0.7040427958232849, -0.3135691488697745, 0.5527025950281055, -0.4434857756366304, 0.0474879812153417, -0.8184962663065289, -0.4521341705124855, 0.4811460790731026, 0.2831452782561601, -0.7442762320145859, 0.4113405199135638, 0.6563928724268164, -0.17064379664213103, 0.7258959736446022, 0.5748528235960388, 0.9164502324450927, 0.10273902303163185, 0.7143174736058588, -0.25173726038569555, -0.050796537694719035, -0.7829086208299687, -0.7666391139785547, 0.0416773588033057, -0.0013780823430762368, 0.3311925687721837, -0.522438071120543, -0.9140673598898292, 0.9440967580571082
-0.9855921380236281, -0.8378307989269569, -0.9727909356499169, 0.8134872909656936, -0.08991560419190892, 0.4284539618898666, -0.8101845133294372, 0.18791632966066274, -0.7011319044706203, 0.46125245585753305, 0.35011200756405936, -0.24540603971159314, 0.4227420039059986, -0.5249541008205565, 0.5113754977014766, 0.5327728330560979, -0.6918430009806658, -0.926514645893572, -0.924086056992155, -0.3007818817295451, 0.46289442063518527, 0.14788852708293643, 0.3940104504614359, -0.08330551736157954, -0.07053096429300654, -0.7505087589316273, 0.05560134168726494, 0.5547717511077934, 0.9296552453957103, -0.9449090445957116, -0.6684463363929996, -0.49567069305095846, -0.8048085104611449, -0.2882335154178861, 0.7696549011272715, 0.9104398014831241, -0.828815218162406, -0.7047994689438379, 0.4477859823431132, 0.19980836384344425, -0.2325338693404455, 0.22084937237266233, 0.9519965719806485, -0.3259043210738026, -0.7361148462317622, -0.8935276324086736, 0.0629781823722988, 0.7231348390947399, -0.060913282723706, -0.20252567279520184, 0.02568474171110191, 0.7785599296827317, 0.06693146424181373, 0.5490247434378719, -0.6347919889046532, -0.2624222278119639, 0.6996471074885617, -0.16230084293417946, 0.682130431668682, 0.6475614146716251, 0.5808133631192529, -0.7714946218585066, -0.4224010421564075, -0.46412967119923954, 0.020334616201362454, -0.6063137162378505, -0.5710290613687685, 0.7142843900997358, 0.5821798211019034, -0.8000929276460749, -0.02177699083289708, 0.6860880138753824, -0.4595620783126346, 0.6149230862836164, 0.923858521362126
0.6810905782943997, -0.2856921013320841, 0.6895130463025465, 0.7076674343374987, 0.4950260496995642, -0.9842154012991986, -0.229561597320318, -0.4903335257969932, -0.2613197591400258, 0.1280950455282892, 0.6159765722124559, -0.06726904784346566, -0.211783441365879, 0.10884657354238003, -0.8530452290798705, -0.6998561087145254, 0.3090166031969086, -0.35292057393972476, -0.946641456762594, -0.29133843006897076, -0.5429977419617407, -0.908625502632384, 0.32815590109475723, 0.029917749020161644, -0.7628414113479236, 0.40884093368286356, -0.5259128598212581, 0.7671049635764553, -0.24215608870159233, 0.4666166832144021, -0.8014607989942708, 0.28817105869973947, 0.9077642650616147, -0.8114256179532, 0.5839310052564919, -0.8091381090227374, 0.9894485887716784, -0.8726573078716702, 0.8205418660561574, -0.010490767763166708, -0.07582261982129479, 0.9947523993587777, 0.5492659353818397, -0.5311900215624026, 0.1972874311342281, -0.33407618059597644, 0.3167148576692669, -0.11612068435200129, 0.07943804889333306, -0.6384656826874151, -0.5592788196951228, 0.4434284408817577, -0.86084399987767, -0.49671628195819784, 0.19780964493747355, 0.6741731310663805, 0.8709575239379808, -0.6776335086193819, 0.11651498900509516, -0.9900203580695002, 0.2975972087336962, 0.11568740905981345, -0.6746191964504891, 0.34966922892422714, 0.6383713081650928, 0.59463612867295, -0.7891566685000964, -0.9736862576111251, 0.22855365731775334, -0.9675107950176209, -0.9608560535879791, -0.20512142350838314, 0.665751387872104, -0.7638099950749715, -0.3157440157593707
0.8888677883970475, 0.20176464272991446, -0.7232908499498807, 0.5211235210741916, -0.609400078536892, -0.4009075761843022, -0.2285206020468089, 0.13204544685895536, 0.8562891779131467, 0.880208862795127, -0.027747063655464643, -0.2625132028557853, 0.4793190055551868, 0.09207139254129926, -0.26794065986666293, 0.32221996715105394, 0.8071220105235053, -0.8306266405874196, -0.27386410713466036, -0.9361142502700686, 0.7193361602710784, 0.10475190853578953, 0.0398416112951816, -0.43323177007963665, -0.5731124922531023, 0.6204642516259331, 0.46957094020755763, -0.7963415594968715, 0.6602390879178546, 0.8129630448403162, -0.3446451579832508, -0.8230977828738992, -0.1789296170869048, 0.13306834335644568, 0.805333643241847, -0.8261741696529459, 0.9910926967517133, -0.3749283022411607, -0.27505184516042025, -0.7012621956371747, -0.09281872314507433, -0.7911376276764512, -0.15187740122934423, 0.5553402166335806, -0.8122292276725323, 0.716845755335406, 0.23562821548040347, 0.09243579044516492, 0.2066999818519104, -0.33747332783083595, 0.9084876132610114, 0.7764347231953934, -0.1273008653662706, -0.5524571634596298, -0.4638912506540751, 0.3633493961102383, 0.026577332506724893, -0.5241768201702612, -0.3436775398326275, 0.3785533537802923, -0.24150979018134722, -0.09783109827379644, -0.24386109165309477, 0.6970214345660102, 0.11843304972847779, 0.4336828902521441, 0.5211253111414766, 0.040320620056540246, 0.8753651898253816, 0.34142395720555774, 0.3317806588596106, 0.4696642736452632, -0.34648817237596985, 0.6064234097886536, -0.3531058310029995
-0.12152864119039863, -0.9668793319667759, 0.15783974572284531, -0.6644006418138013, -0.40555001531066326, -0.30191391732356676, -0.6463155224571531, 0.8630439288950984, -0.6936786435240783, -0.9345090974244696, 0.576100802901069, 0.09213955149220965, 0.6699604016901533, 0.9870642724646612, 0.7234144127055293, -0.4854990512978472, -0.18729806945636884, 0.3796495434579712, -0.8386123662678084, -0.014053618523846012, 0.65166466864568, -0.7498314573673781, -0.37886372557014525, -0.16587757575211004, 0.3772953944818358, -0.6635742322536706, 0.2671669064657616, 0.747376045762302, 0.8085192692422405, -0.520771259904766, 0.6941647556990365, 0.7879307282551475, -0.6580056922724671, 0.7088349067196233, -0.4988673465849174, 0.343407200105708, -0.4357894324580016, 0.1040309505637258, -0.8313472708727452, 0.06158283273983223, 0.026034847959843788, 0.7607934231246198, -0.7430104587054944, 0.8759322628403918, -0.022076921684942352, 0.6714957587020796, -0.5201653039969956, -0.19158445309235006, 0.5818611536353728, 0.8187592679643103, 0.4328745807253238, 0.2141038819776755, -0.9294297350287084, 0.03609754791663766, 0.932670230945639, -0.6318704216918771, 0.8712721392324463, 0.5065650942716307, -0.42099299532842993, -0.2603760171896843, -0.7310692753116932, 0.7713717506116575, -0.23878750042393548, -0.08706260562657953, -0.2486211158341618, 0.974367596493134, 0.7057142916661938, 0.3010703328968858, -0.7324971269114338, -0.5752850296785748, -0.3245317320499428, 0.0711443211903342, -0.23173576852088162, 0.678006944732735, 0.8834617785597905
0.5036377680172692, 0.5992121676120834, -0.37808721943621215, 0.26153639175178567, -0.6591353963528368, 0.21318175045136245, 0.5523530155010272, 0.9525546171623103, -0.3893128768970824, 0.856648290883824, 0.7300209183198731, -0.3345671750411925, -0.12891652515699947, 0.09866397729761234, -0.21596800580317144, 0.675433932391662, -0.0009809006579959423, 0.6107963095619748, 0.46873689634417604, 0.5041980048143477, -0.5408675058752914, 0.09489594996790851, -0.40075135758842206, 0.45350849126887294, -0.86515881868127, -0.44957019646689034, 0.46610949618957775, 0.7569184575687724, 0.3219969146769244, 0.3315994475432382, 0.25541130077807717, 0.9456889515744273, -0.35266660582064, -0.12242773593022038, -0.12428705152401642, -0.2977151035759449, -0.9051367884120127, -0.8414298877608162, -0.6695734987620967, 0.27582755432062545, 0.6517926104445344, -0.8897207991750333, 0.5479126231011655, 0.7973549796169936, -0.657881248832747, -0.32382378421014035, 0.4815139182773587, 0.44467576199385883, 0.44461697118883325, -0.13498701273543423, -0.7440240470961972, 0.5123113541927053, -0.9198246197051145, 0.20753605780435436, 0.5554195267761992, -0.8900028880917383, -0.7908096725395075, -0.8964571714670435, 0.7228908045290119, 0.8581016623116544, -0.5608296306770995, 0.9435360852125254, -0.3299795191845032, 0.689470161939099, -0.8988596187488129, -0.19038875114493958, -0.8239718695572384, 0.9112166217956599, 0.9220085332007235, 0.827918987138696, -0.9003562748096088, -0.16262780307649738, 0.9415697151973164, -0.5954993661262544, 0.9247454622242932
