-0.11331015268889733, 0.8557032255138198, -0.9997600300643792, 0.5324252343902276, 0.16518377093070938, -6.316607092062107, -0.6773481408177217, 0.2195407029076697, -0.142643247888111, 0.6370677418109284, 0.6210058791879214, 0.9731909106114199, -0.7395163233908494, 2.451791811040972, -0.40808421351874963, -0.30871554700559445, -0.9732220870456846, 0.03050935357587664, 0.9430450156204206, 0.013134478650071113, -0.004263492699694033, 0.3251291075960501, 0.8408657132347291, -0.5676915305214923, 0.005024511456803271, 0.92507598398043, -0.6737021636936245, -0.6859420238240695, -1.7126647763960339, -0.1957248474388467, 0.39099050477492137, -0.09083530931190431, -0.15994747185760216, -0.5279164851280006, -0.021634862440672267, -0.9673476399216859, 0.21123469731357578, 0.8395900986617685, 0.8816555742386392, 0.6815769173998216, -0.9641863969649327, -0.17962399347423477, -0.6494702664868379, 0.004015783553537908, 0.556628787413001, -0.06916319668848646, 0.7974882099122956, 0.9604455042798623, -0.34857561031482504, -0.1481843568543515, 1.270552814863221, -0.21447923492670676, 0.14435833829242695, -0.0637738236719624, 1.7572519708420993, 0.4875274383277617, -0.8916199746063541, -0.9101213730752121, 0.6383370869563447, 0.72979036781283, -0.6185388845703378, 0.47295268061802753, -0.8203539285632026, -0.9135266107229825, -0.6027829340483044, 0.823021367720945, -0.9824154578961307, -0.2643498074967439, 0.058638159233158196, -0.8877368541708569, -0.1397746329515053, 0.838461684857733, 0.5223848794980573, 0.02058966620928277, -0.22398476879346893, 0.577120340916273, 0.056401679133846576, -0.29517791090318024, -0.047528346530689713, -0.14218069498477656, 0.9810978311068755, -0.7701285067526816, -0.9349240475516623, 0.07729977869667383, -0.654015146122735, -0.1241777386946894, -0.8197426996634681, -2.069821721600976, 1.656732468721454, -0.23269666691277235, 0.6417179578384498, 0.9828710453237993, -0.5388984467557236, -0.2528835280452606, 0.6155620453382321, -0.6424120342912185, 0.09700690326790085, 0.020731958592492994, 0.004015339823879582, 0.8367948319969076, -0.3336563389743427, 0.28893639942276206, 0.639168294398472, 0.8591256535111046, 0.03509083922254552, -0.9161900292519838, 0.26349811208493934, 0.42162101731194096, -0.4052151559785414, 0.06302198368080836, 0.43455290746613334, 0.4954482454062634, 0.4833069850830441, -0.35022215611137836, 0.047737706550246, -0.09275422291499424, 0.07243020421305646, -0.881207807645063, -0.7439204752244043, 0.5070140243849237, 0.441437242300543, -0.5242376529207301, 0.16887777250699568, 1.9308861213335824, -0.6493059410709208, -0.7525894726469264, -0.17524424675073647, 0.07317995969588686, -0.8939693974930621, 0.09607474288450933, -0.8252808073489318, 0.43093296491130184, 0.17091851894462762, 0.275541823998492, 0.9330979419507052, -0.7422914161248343, 0.5136103882065304, -0.9604866732119537, -0.41054068528960785, -0.5783368390819557, -1.0096106199117278, -0.6445145378213413, 0.8431455553709948, -0.5631551877364513, 0.6564165793754443, -0.637945220264744, -0.47039094323116587, -1.0047952986278006, -0.327603561361546, -0.2632856277217681, -0.9039100005894983
0.2847983727989445, 0.0303650625704699, 0.6555406817607285, 0.6869780018953859, 0.244371437984611, 5.660214985953143, -0.20945957218350383, 0.8958882602305809, -0.19903543014076286, 0.6382344640326127, 0.29053547715138484, -0.49434917335638123, 0.5456571628833943, -2.754146753457774, 0.002481443775155605, 0.5280924971424961, 0.06201766183177488, 0.816056181654129, -0.3387834530755587, 0.5058737706842038, 0.5702858757051297, -0.3082307547444742, -0.17289761342960644, 0.17207283174783325, 0.516320249293599, 0.2730650622465381, -0.16620206138947768, 0.7797718725417513, 1.5377713432864504, 0.7404103701774294, -0.15816746756604028, 0.13524566010442696, -0.27598913932684077, -0.48208485015330665, 0.3872973329874411, 0.4983809747215927, -0.8568431131423913, 0.5530722319093782, 0.1655863167022189, -0.8390955160325371, 0.5281761309103707, 0.42635563698817086, 0.018503787688983753, 0.15461621350847754, 0.6580725803815508, 0.8858255773919981, -0.7877866529387425, -0.3489292812916016, -0.17588135600927837, -0.10885421267441275, -0.743784009549801, 0.03841331184823557, 0.41287179140941754, 0.46030806536374574, -1.0886678715563465, -0.39115617643016964, -0.48841984669923416, 0.01609841017806688, 0.006888688068226845, 0.23933117877342178, 0.6369538381384092, 0.05032728942594433, -0.7783809861713566, -0.390401153648706, 0.5996808218902991, 0.5176034574600301, 0.2588867427753258, 0.01686548275170694, -0.2776706591072672, -0.43194208196277456, -0.797665772218773, 0.6671787835472147, 0.17625057215581527, 0.367576611841353, 0.6942775399669452, 0.05312666052676319, 0.5691754311747803, -0.7872723860603803, -0.45746766446905607, -0.17664117096977996, 0.6507482285592598, 1.124103969774783, -0.969830435712681, 0.24124388011647732, 0.01426414565524503, -0.5655207358947303, 0.5475393455008206, 2.4007263854307173, -1.917808513547427, -0.6973836505415076, -0.6758567739923871, 0.46600648217787427, -0.42205771055395225, 0.12666751561585432, -0.5506883389180379, 0.7965679649809978, -0.2851216866433597, -0.9342275353857614, -0.09206076723999779, -0.5180916171977463, -0.6161469123933319, 0.46995419218351886, 0.3350625418199651, 0.3760694849038259, -0.6325997776074437, 0.37033945081328046, -0.09050704162035617, -0.7459677344738924, 0.3063231261334547, 0.8930312699041134, 0.6560453176944716, -0.5056066085545488, -0.5648809242423771, 0.86808481318958, 0.34577594800921146, 0.30869120939016437, -0.0635174979603561, -0.2234421494086958, 0.23326867836475199, -0.9663555931598355, -0.01392216186500358, -0.2440047360735568, -0.45599608971705224, -0.3737583791719201, -0.7494243117068957, -0.9530983492026048, 0.9967200397753126, -0.7619705424745988, -0.06991613940346146, 0.24251038702501002, -1.0480305537333745, 0.6790128907600823, 0.6944692216908748, 0.39410251770290045, 0.5643450668731462, -0.4551781902871798, -0.43353156837816664, -0.7258521977926677, -0.5539213842262067, 0.1734286660674904, 0.34762720126437524, -0.7135550864062647, 0.008865860230157896, 0.7931893468479285, 0.360047088206264, 0.9657277212444608, -0.8821548396053631, 0.5337198415925977, 0.9681964378473804, 0.787746144460709, -1.078881456680087